tree
version=v4
num_class=1
num_tree_per_iteration=1
label_index=0
max_feature_idx=17
objective=binary sigmoid:1
feature_names=Duration SourcePort DestinationPort PacketCount ByteCount network_packet_size login_attempts session_duration ip_reputation_score failed_logins unusual_time_access Protocol_TCP Protocol_UDP encryption_used_DES browser_type_Edge browser_type_Firefox browser_type_Safari browser_type_Unknown
feature_infos=[0:39.009370235837963] [1098:65461] [1:1022] [0:150.46006972721318] [0:15379.5354838657] [0:621.95333975039387] [1:13] [0:39.143902672853073] [0:0.51531028688974523] [0:3.4985315107517869] [0:1] [0:1] [0:1] [0:1] [0:1] [0:1] [0:1] [0:1]
tree_sizes=7481 7487 7460 7440 7435 7472 7442 7422 7420 7435 7429 7411 7429 7433 7418 7412 7387 7379 7408 7417 7446 7463 7473 7449 7434 7452 7470 7437 7444 7425 7476 7434 7410 7472 7478 7455 7459 7394 7472 7460 7414 7422 7417 7488 7443 7391 7491 7460 7410 7497 7442 7455 7413 7413 7438 7421 7387 7421 7396 7487 7470 7477 7468 7478 7448 7490 7456 7449 7430 7436 7451 7497 7430 7478 7479 7437 7460 7460 7458 7414 7449 7504 7436 7494 7499 7442 7438 7442 7456 7460 7444 7463 7408 7423 7482 7448 7446 7455 7465 7434 7435 7457 7469 7447 7434 7468 7464 7442 7475 7427 7447 7464 7448 7451 7424 7476 7485 7468 7441 7408 7471 7456 7432 7456 7479 7467 7468 7438 7435 7492 7479 7481 7450 7426 7520 7499 7478 7457 7479 7462 7459 7455 7470 7443 7484 7427 7484 7486 7483 7471 7472 7440 7478 7506 7502 7472 7451 7443 7429 7453 7481 7498 7491 7481 7468 7495 7512 7511 7474 7483 7504 7492 7488 7473 7492 7508 7494 7540 7476 7464 7498 7518 7517 7517 7487 7456 7474 7481 7491 7475 7572 7502 7439 7503 7525 7482 7499 7508 7508 7505

Tree=0
num_leaves=70
num_cat=0
split_feature=9 6 8 17 6 7 8 5 7 5 11 13 5 7 9 5 5 8 7 8 9 6 7 7 5 8 8 6 11 7 16 7 7 8 8 9 7 5 5 6 5 8 6 10 7 6 5 5 7 5 8 8 5 13 9 5 8 8 5 7 7 7 7 7 8 5 7 16 7
split_gain=17530.8 12473.2 10767.8 2025.44 1977.31 71.3537 38.348 30.3693 77.8566 47.3815 38.0178 29.8867 25.5372 23.771 21.9963 28.922 28.7492 32.0581 29.571 34.6815 72.6909 24.2234 24.6288 41.0517 61.339 24.1977 50.7053 54.7315 56.4585 28.2286 25.1277 37.762 46.9894 24.2165 39.1675 48.3192 53.3071 34.6972 30.1407 37.9881 28.4079 31.9957 25.4971 25.3574 23.4703 51.0178 23.2848 40.6115 66.0847 23.2289 70.7182 37.1244 47.2299 75.7001 36.5907 30.4714 23.8296 29.4726 25.3665 24.4466 23.1508 22.0048 21.9461 21.5036 34.0774 22.8562 22.7613 20.8346 28.7194
threshold=2.6329888631496936 6.5000000000000009 0.39398542350681315 1.0000000180025095e-35 3.5000000000000004 32.920995819028612 0.37509246993743878 165.69961162301129 27.262536039541917 163.71833716747096 1.0000000180025095e-35 1.0000000180025095e-35 483.89823430137284 36.637449810574545 1.0000000180025095e-35 390.94647940934192 249.72174767186115 0.18236825304884777 37.066569972946148 0.017009454188627253 1.6867032566913374 4.5000000000000009 19.645452621230294 8.4658974892824048 319.27851787088883 0.074724228310966714 0.081544349215153869 4.5000000000000009 1.0000000180025095e-35 33.452480106916234 1.0000000180025095e-35 13.881828831552033 13.467724405714376 0.13406219340257344 0.13953922265019808 1.6867032566913374 10.791825303034249 305.96328501900433 444.40716980431648 3.5000000000000004 400.30583371164647 0.086053232381677613 1.5000000000000002 1.0000000180025095e-35 7.5281932771963769 3.5000000000000004 284.32204825296236 232.306443110678 27.154657254350457 474.04748517822156 0.15891216144475628 0.29034159760226419 358.37812344122841 1.0000000180025095e-35 1.6867032566913374 259.36270802633402 0.22209381824760757 0.21796229142326481 387.8232670075277 36.637449810574545 32.518891757638322 25.483345514619618 29.293028170227156 1.1603019447490408 0.28039504661806741 342.01869823944656 20.408506457806979 1.0000000180025095e-35 29.293028170227156
decision_type=2 2 2 2 2 2 2 2 2 2 2 2 2 2 2 2 2 2 2 2 2 2 2 2 2 2 2 2 2 2 2 2 2 2 2 2 2 2 2 2 2 2 2 2 2 2 2 2 2 2 2 2 2 2 2 2 2 2 2 2 2 2 2 2 2 2 2 2 2
left_child=1 2 3 6 5 -5 7 8 9 -1 -11 13 -8 -7 15 21 17 -16 19 20 -18 -9 23 24 -23 67 27 -27 -29 30 33 32 -32 40 35 -35 -37 43 39 -38 42 -42 -28 -36 45 -17 47 60 61 51 -51 55 -53 -54 -52 -31 57 58 59 -57 -24 -49 -50 64 -39 -65 -67 -21 -69
right_child=-2 -3 -4 4 -6 11 12 14 -10 10 -12 -13 -14 -15 16 44 18 -19 -20 25 -22 22 46 -25 -26 26 29 28 -30 49 31 -33 -34 34 37 36 38 63 -40 -41 41 -43 -44 -45 -46 -47 -48 48 62 50 54 52 53 -55 -56 56 -58 -59 -60 -61 -62 -63 -64 65 -66 66 -68 68 -70
leaf_value=-0.38738734319363294 -0.036275672101273054 -0.036275672101273054 -0.036275672101273054 -0.42691429467974717 -0.036275672101273054 -0.23171433244088663 -0.34487690087377504 -0.39771403355045021 -0.33533127643907445 -0.17013776822429605 -0.35696226447268908 -0.097967168420595607 -0.44343954780880129 -0.44343954780880129 -0.37612806315426195 -0.14824573792084336 -0.086132473208317351 -0.40422389589225788 -0.42603291371721552 -0.41112993363478323 -0.44343954780880124 -0.38527327985058296 -0.38249463647678272 -0.42570004285058949 -0.036275672101273054 -0.35735347123063821 -0.34164857888191924 -0.44343954780880118 -0.080896370808947404 -0.20771309345181127 -0.36346092936625113 -0.42859004175358556 -0.036275672101273054 -0.39189981670658258 -0.35590418361868958 -0.44343954780880129 -0.38147982759243826 -0.44343954780880124 -0.036275672101273054 -0.14405434508267762 -0.11383069604556414 -0.36750312338732621 -0.41805526628090051 -0.40684054774520328 -0.42559571261843154 -0.44343954780880129 -0.3821550881662249 -0.27578383428217201 -0.03627567210127311 -0.036275672101273054 -0.23329045066943188 -0.37419399071568427 -0.03627567210127311 -0.34902473605053386 -0.44343954780880129 -0.3605654846116938 -0.44343954780880129 -0.17199696400378248 -0.44343954780880129 -0.15028155729938097 -0.21949941616966076 -0.44343954780880129 -0.26428744249748887 -0.40022454749248704 -0.1822400803737832 -0.38966724515329043 -0.36797639403056726 -0.2219995452310228 -0.44343954780880129
leaf_weight=1209.5866784453392 2756.3840187191963 1468.2049063444138 1041.104148209095 217.84840279817581 343.10509437322617 12.280067801475527 379.45409506559372 870.41120576858521 455.09931272268295 17.928898990154266 27.752953231334686 8.1048447489738482 28.244155943393707 9.3328515291213971 637.33551889657974 9.8240542411804217 12.034466445446014 1119.4509807825089 132.13352954387665 318.79056012630463 10.806459665298462 17.192094922065738 77.118825793266296 118.37985360622406 7.1224393248558036 42.980237305164337 49.1202712059021 5.6488311886787441 17.928898990154266 9.3328515291213971 41.261027812957764 208.76115262508392 4.9120271205902091 38.805014252662659 924.197902739048 10.315256953239439 11.297662377357485 8.1048447489738482 9.8240542411804181 16.700892210006714 5.1576284766197196 138.27356344461441 393.94457507133484 109.29260343313217 369.87564218044281 14.490480005741118 119.11665767431259 20.876115262508392 13.508074581623079 9.3328515291213971 15.227284073829649 36.103399336338043 14.244878649711611 16.946493566036224 18.174500346183777 55.505906462669373 60.663534939289093 7.3680406808853141 38.068210184574127 6.1400339007377616 9.8240542411804181 12.525669157505034 6.1400339007377616 636.3531134724617 13.016871869564055 929.84673392772675 1008.4391678571701 13.9992772936821 10.069655597209929
leaf_count=4925 11223 5978 4239 887 1397 50 1545 3544 1853 73 113 33 115 38 2595 40 49 4558 538 1298 44 70 314 482 29 175 200 23 73 38 168 850 20 158 3763 42 46 33 40 68 21 563 1604 445 1506 59 485 85 55 38 62 147 58 69 74 226 247 30 155 25 40 51 25 2591 53 3786 4106 57 41
internal_value=-0.266862 -0.312098 -0.344283 -0.372068 -0.191692 -0.407086 -0.381798 -0.382962 -0.370765 -0.383612 -0.283639 -0.26173 -0.351705 -0.323141 -0.385323 -0.395672 -0.382917 -0.394031 -0.379307 -0.378137 -0.255181 -0.388339 -0.36803 -0.401392 -0.283042 -0.378672 -0.376879 -0.29019 -0.167756 -0.37807 -0.379985 -0.41049 -0.328654 -0.378178 -0.375198 -0.308868 -0.241935 -0.376787 -0.186979 -0.239858 -0.397062 -0.358381 -0.409584 -0.361291 -0.41934 -0.324169 -0.349657 -0.322005 -0.253053 -0.347657 -0.279638 -0.359552 -0.296326 -0.206194 -0.347636 -0.383579 -0.393364 -0.364995 -0.379256 -0.339621 -0.364077 -0.338655 -0.107529 -0.382956 -0.282468 -0.383781 -0.378382 -0.404356 -0.314643
internal_weight=0 14050.4 12582.2 11541.1 590.671 247.566 10950.4 10542.7 1710.37 1255.27 45.6819 29.7178 407.698 21.6129 8832.32 1666.41 7165.91 1756.79 5409.12 5276.99 22.8409 1272.22 401.804 142.694 24.3145 5254.15 4911.29 66.558 23.5777 4844.73 4557.62 254.934 46.1731 4302.69 3716.19 86.9429 48.1379 3629.25 37.8226 27.9986 586.496 143.431 443.065 1033.49 394.19 24.3145 259.109 139.993 53.0499 287.108 42.7346 244.373 67.2948 31.1914 33.4018 177.079 167.746 107.082 99.7142 61.6459 86.9429 33.4018 19.6481 2595.76 21.1217 2574.64 1938.29 342.859 24.0689
internal_count=68431 57208 51230 46991 2405 1008 44586 42926 6964 5111 186 121 1660 88 35962 6785 29177 7153 22024 21486 93 5180 1636 581 99 21393 19997 271 96 19726 18557 1038 188 17519 15131 354 196 14777 154 114 2388 584 1804 4208 1605 99 1055 570 216 1169 174 995 274 127 136 721 683 436 406 251 354 136 80 10569 86 10483 7892 1396 98
is_linear=0
shrinkage=1


Tree=1
num_leaves=70
num_cat=0
split_feature=9 6 8 17 6 7 8 5 7 5 11 8 5 5 7 6 5 14 16 8 8 6 6 7 8 15 7 9 5 5 8 7 8 9 5 13 7 7 5 6 5 5 7 5 5 6 8 8 8 8 6 11 7 16 7 7 8 8 5 5 5 11 5 5 8 5 8 15 7
split_gain=14010.2 10050.8 8732.44 1674.99 1585.42 60.6448 33.0281 26.3807 66.5177 39.9562 30.9061 24.9308 55.4407 22.1127 20.1364 30.5668 75.265 33.5026 37.7683 33.0295 51.6492 27.5546 22.4613 19.7868 36.4437 21.6807 35.9022 19.1894 25.3391 24.6488 27.9107 25.7449 28.856 59.2687 21.5826 38.9225 21.7393 88.1749 71.214 34.0519 22.6541 32.0657 56.1372 22.5263 28.3028 22.1285 42.2495 42.4589 20.9668 42.5371 44.5502 45.4947 23.5826 21.9847 32.5938 37.9574 21.0125 34.8596 39.4837 29.8765 27.2739 25.1873 26.3958 25.1624 68.6534 24.6197 26.1312 23.8783 36.2712
threshold=2.6329888631496936 6.5000000000000009 0.39398542350681315 1.0000000180025095e-35 3.5000000000000004 32.920995819028612 0.37509246993743878 165.69961162301129 27.262536039541917 163.71833716747096 1.0000000180025095e-35 0.32368711054100191 343.27897764710514 483.89823430137284 15.224144037948767 2.5000000000000004 84.46163853365303 1.0000000180025095e-35 1.0000000180025095e-35 0.25226198000281758 0.26243717773487041 4.5000000000000009 4.5000000000000009 8.8258001065005693 0.16442142200837204 1.0000000180025095e-35 12.315073444258202 1.0000000180025095e-35 390.94647940934192 249.72174767186115 0.18236825304884777 37.066569972946148 0.017009454188627253 1.6867032566913374 386.57349641947911 1.0000000180025095e-35 19.060730874633368 19.880601111465868 273.46082364037164 4.5000000000000009 284.32204825296236 232.306443110678 27.154657254350457 378.44314853741417 380.94606434495648 5.5000000000000009 0.18001536095932702 0.2892167023613425 0.074724228310966714 0.081544349215153869 4.5000000000000009 1.0000000180025095e-35 33.452480106916234 1.0000000180025095e-35 13.881828831552033 13.467724405714376 0.13406219340257344 0.14811406390459511 444.40716980431648 305.96328501900433 523.77437686754104 1.0000000180025095e-35 455.53809916024721 336.9744120666025 0.13563795916388868 400.30583371164647 0.086053232381677613 1.0000000180025095e-35 1.1603019447490408
decision_type=2 2 2 2 2 2 2 2 2 2 2 2 2 2 2 2 2 2 2 2 2 2 2 2 2 2 2 2 2 2 2 2 2 2 2 2 2 2 2 2 2 2 2 2 2 2 2 2 2 2 2 2 2 2 2 2 2 2 2 2 2 2 2 2 2 2 2 2 2
left_child=1 2 3 6 5 -5 7 8 9 14 -11 12 -7 -8 15 16 -1 18 23 -17 22 -22 -21 24 -18 26 -25 28 34 30 -29 32 33 -31 36 -36 -9 38 -38 43 41 45 -43 -39 -45 46 -41 -48 -34 50 -50 -52 53 56 55 -55 65 58 63 -59 61 -60 -63 64 -58 -51 -67 68 -61
right_child=-2 -3 -4 4 -6 11 13 27 -10 10 -12 -13 -14 -15 -16 19 17 -19 -20 20 21 -23 -24 25 -26 -27 -28 29 -30 31 -32 -33 48 -35 35 -37 37 39 -40 40 -42 42 -44 44 -46 -47 47 -49 49 52 51 -53 -54 54 -56 -57 57 59 60 67 -62 62 -64 -65 -66 66 -68 -69 -70
leaf_value=-0.14911691354636619 0.20369417574773885 0.20369417574773885 0.20369417574773885 -0.14826642923411035 0.20369417574773885 0.21599194826970169 -0.071094429545584203 -0.13097947703787027 -0.062290236507273139 0.086085991131308603 -0.082288971476924253 -0.17572699162137459 -0.091854136461910582 -0.16418250488930611 -0.12037222897990796 -0.13485589674895304 0.14351381991531861 0.24731269731555569 0.24731269731555569 0.24731269731555569 -0.039848954699196741 -0.1394933757314811 -0.018412428829050888 0.17811344571539761 -0.16788281228539209 -0.16788281228539209 -0.064083934885155139 -0.10015777846471832 -0.14109365114465106 0.15992458581635174 -0.12662851220681645 -0.14742135872083764 -0.12680891528522298 -0.16418250488930608 -0.16607542875319312 0.10113034305208948 -0.074211664257949617 -0.13091637194372308 0.20524651660727564 -0.16821574956334864 -0.11359150683805437 -0.07929624283930975 0.14150017112554908 0.12277297670393963 -0.10689160946874665 -0.1303909149003312 0.2373847228611059 -0.053112552838517069 -0.082652264782464929 -0.13174114277086746 -0.16418250488930602 0.16451848309090242 -0.074028325254607771 -0.088331574989223755 -0.14987420739816454 0.20369417574773885 0.22482804868039491 -0.086997017594995854 0.23125475672838799 0.05522616952285208 -0.10543443961823672 0.22630781044300649 -0.025124039312914716 -0.12668372131315922 -0.075562360782813157 0.13561869188399042 -0.09209843105833361 -0.12594942924466671 -0.10353705783003092
leaf_weight=42.630518853664398 2804.8271932303905 1494.0084612965584 1059.4014498889446 211.9453714042902 349.13513222336769 10.930016219615942 374.98873695731163 449.54017275571823 450.46745221316814 18.118564054369926 27.368854492902756 6.0947655886411658 12.587031841278074 27.381721884012222 766.1450874209404 190.7535080909729 4.8170077800750759 6.0212597250938407 5.5395589470863333 6.7438108921051008 54.673038303852081 56.358991026878357 6.0212597250938416 13.005921006202703 17.10037761926651 4.8170077800750724 11.560818672180174 626.33533224463463 383.94604444503784 12.227308183908463 1094.1911780834198 128.57691335678101 335.00289775431156 10.476484894752502 9.5820755958557129 12.645846307277679 21.016116112470627 468.71930211782455 16.10759899020195 13.018025547266005 111.62466984987259 27.352175027132034 19.88759845495224 7.9321728050708797 16.585452228784561 51.455766454339027 8.2796696424484271 12.824456736445425 42.382463067770004 432.5461573600769 5.4763443768024471 18.22017402946949 282.60838808119297 40.642886996269226 203.03266867995262 4.9983555078506461 8.3753935694694501 981.83313563466072 7.3222149908542624 14.500368535518644 12.565755128860472 5.1473734974861172 22.110831618309021 73.326416462659836 83.075404807925224 5.2330301105976096 136.10259164869785 551.92194406688213 1891.658355280757
leaf_count=177 11223 5978 4239 887 1397 44 1545 1872 1853 73 113 25 52 115 3181 792 20 25 23 28 227 234 25 54 71 20 48 2595 1605 49 4558 538 1396 44 40 52 87 1950 67 54 463 113 80 33 69 213 34 53 175 1804 23 73 1169 168 850 20 34 4057 30 59 52 21 91 304 344 21 563 2290 7849
internal_value=0 -0.0413316 -0.0708653 -0.096525 0.0674226 -0.129538 -0.105538 -0.106631 -0.0951719 -0.107198 -0.0152218 0.00451204 0.0512235 -0.0774292 -0.110725 -0.0931286 -0.0465471 0.0230117 -0.000749027 -0.108751 -0.0685267 -0.0904277 0.121971 -0.027535 -0.099444 0.026102 0.0641382 -0.108857 -0.118631 -0.10659 -0.116992 -0.103219 -0.102122 0.0103679 -0.111713 -0.0140575 -0.113486 -0.103336 0.0470424 -0.110904 -0.0803842 -0.0524757 0.0136574 -0.126029 -0.0325884 -0.0889818 -0.0265373 0.0608567 -0.102618 -0.100937 -0.0212559 0.0885546 -0.102044 -0.103814 -0.132709 -0.0563507 -0.102113 -0.0993178 -0.0599547 -0.101743 0.02074 0.066589 0.0223557 -0.0830431 -0.0480515 -0.119901 -0.0836671 -0.107633 -0.102329
internal_weight=0 13889 12395 11335.6 590.692 241.557 10744.9 10342.6 1682.14 1231.68 45.4874 29.6118 23.517 402.37 1186.19 420.043 105.492 62.862 56.8407 314.551 123.797 111.032 12.7651 51.3011 21.9174 29.3837 24.5667 8660.41 1630.52 7029.89 1720.53 5309.36 5180.79 22.7038 1246.57 22.2279 1224.34 774.803 37.1237 737.679 244.442 132.818 47.2398 493.237 24.5176 85.5779 34.1222 21.1041 5158.08 4823.08 66.079 23.6965 4757 4474.39 248.674 45.6412 4225.72 3651.84 211.923 3439.91 47.1462 34.5804 27.2582 164.777 91.4508 573.882 141.336 2458.08 1906.16
internal_count=68431 57208 51230 46991 2405 1008 44586 42926 6964 5111 186 121 96 1660 4925 1744 438 261 236 1306 514 461 53 213 91 122 102 35962 6785 29177 7153 22024 21486 93 5180 92 5088 3216 154 3062 1010 547 193 2052 102 354 141 87 21393 19997 271 96 19726 18557 1038 188 17519 15131 876 14255 194 142 112 682 378 2388 584 10198 7908
is_linear=0
shrinkage=0.1


Tree=2
num_leaves=70
num_cat=0
split_feature=9 6 8 17 6 7 8 7 5 7 5 7 11 6 7 9 8 5 8 8 7 8 5 7 5 10 8 9 5 14 5 5 12 9 5 5 8 8 7 8 8 6 11 7 16 7 5 7 8 5 7 5 5 14 8 7 8 5 8 8 7 8 8 6 7 8 8 8 8
split_gain=11464.6 8256.85 7195.79 1391.5 1301.73 52.0498 29.0456 23.2078 23.3464 64.5777 34.0227 29.309 22.0521 21.9763 21.4934 20.0166 66.4439 32.3788 41.5008 68.0619 37.5591 33.3877 44.8855 32.8859 27.937 27.5617 24.6519 24.3385 32.8409 21.2849 19.6668 18.1648 18.0663 17.5436 24.3625 21.557 26.2639 19.7986 56.1862 18.9375 32.0348 40.1197 37.3027 20.0521 21.4487 24.82 44.0066 18.3042 38.5783 55.2641 26.2619 33.732 88.0957 49.2216 51.1492 33.1891 36.6229 31.7269 24.9979 24.5115 24.0452 23.8009 32.7205 29.3355 29.1821 23.4689 22.5265 24.5116 21.7436
threshold=2.6329888631496936 6.5000000000000009 0.39398542350681315 1.0000000180025095e-35 3.5000000000000004 32.920995819028612 0.37509246993743878 38.236757423801642 165.69961162301129 27.262536039541917 163.71833716747096 14.6937572566067 1.0000000180025095e-35 4.5000000000000009 37.692480110452827 1.0000000180025095e-35 0.23669153146794858 54.044397280300252 0.22799282207265489 0.22065668561677163 32.774785875883943 0.20325818764828377 10.629911540573426 28.316989736549647 141.82663346975764 1.0000000180025095e-35 0.24997523078543307 1.6867032566913374 106.92186361506219 1.0000000180025095e-35 483.89823430137284 466.6499498532026 1.0000000180025095e-35 1.0000000180025095e-35 462.94808985492779 249.72174767186115 0.18236825304884777 0.017009454188627253 23.566998329097963 0.074724228310966714 0.081544349215153869 4.5000000000000009 1.0000000180025095e-35 7.5281932771963769 1.0000000180025095e-35 29.293028170227156 349.57567999253985 31.889500341670892 0.077183800624782264 184.78127660731931 21.804266983902544 216.10639846678495 224.53970487024722 1.0000000180025095e-35 0.062091203614751157 21.224286968983112 0.10275634362785956 246.50276360622036 0.15127358128504878 0.034477906040834859 34.614464840954909 0.14356715368993991 0.15434053559595964 3.5000000000000004 19.975079501060321 0.13406219340257344 0.039678209147474705 0.049925626919716359 0.18001536095932702
decision_type=2 2 2 2 2 2 2 2 2 2 2 2 2 2 2 2 2 2 2 2 2 2 2 2 2 2 2 2 2 2 2 2 2 2 2 2 2 2 2 2 2 2 2 2 2 2 2 2 2 2 2 2 2 2 2 2 2 2 2 2 2 2 2 2 2 2 2 2 2
left_child=1 2 3 6 5 -5 7 8 9 10 -1 -12 13 -13 -7 16 24 20 19 23 21 -17 -23 -19 -11 -20 -18 -27 -29 -25 31 -8 -24 34 -10 36 47 38 -37 43 41 -41 -43 -39 -45 46 -46 50 -49 58 51 61 55 54 59 56 -53 65 60 -54 -50 64 63 -63 -35 -55 -61 -68 -51
right_child=-2 -3 -4 4 -6 14 30 -9 33 15 11 12 -14 -15 -16 17 26 18 25 -21 -22 22 32 29 -26 27 -28 28 -30 -31 -32 -33 -34 35 -36 37 -38 39 -40 40 -42 42 -44 44 45 -47 -48 48 49 68 -52 52 53 57 -56 -57 -58 -59 -60 66 -62 62 -64 -65 -66 -67 67 -69 -70
leaf_value=-0.10233878034342264 0.18458455573255089 0.18458455573255089 0.18458455573255089 -0.13864567266492828 0.18458455573255089 0.049675781725185691 -0.068062568873793736 -0.151494824506962 -0.10530599993955687 -0.12526716390068665 -0.17102257664391696 -0.031655611463336973 -0.043119915477017774 0.20876851808009242 -0.15689282584400741 -0.10193363897096466 0.24882804879371767 -0.16719162739230095 -0.14194998411809306 0.19456461276945447 -0.097300321793049802 -0.067038742384555691 0.20208426495259202 -0.024393111538976442 0.053054083529708966 -0.1671916273923009 0.036392469464686932 0.2488280487937177 -0.063186708345796261 -0.14407942315974434 -0.15446444506153523 0.089950363662779032 0.008816697147937742 -0.16210859919765941 -0.14534820695722406 0.14238889712950359 -0.11732411672031161 -0.01324559512394338 -0.1615557212110289 -0.081081887494559912 -0.094537589583955459 -0.15446444506153512 0.14806557879263679 -0.13147889902377505 -0.1155807451693267 -0.15653849869852349 0.24173777125490387 0.12284769688326456 -0.16210859919765944 -0.16210859919765941 -0.12586941816548244 -0.094107664905620739 -0.1621085991976593 0.11996935045820467 -0.14676238950135592 0.26100832528613677 0.12168933795610633 0.26100832528613677 0.26100832528613677 0.2610083252861366 0.14561280042691963 -0.093863933958337406 -0.11104276348409781 0.17421511000740939 0.027180551229302047 -0.16210859919765941 -0.16210859919765944 0.12969617630840691 0.0071381705958590714
leaf_weight=1156.9554156959057 2786.1809108108282 1484.0764042437077 1052.3586279004812 204.37529104948044 346.81410785019398 22.776147603988651 362.58770570158958 81.737926959991455 1403.9539148807526 31.008147820830345 9.3955880552530271 6.2389742583036396 19.780441924929619 9.7327998429536819 6.4673484265804282 12.259035184979437 10.576422512531282 24.998816847801208 106.96609131991863 11.05716899037361 30.046654865145683 12.980154901742933 21.39321826398373 105.04310540854931 12.259035184979437 7.2111971676349649 11.297542229294775 5.5285844951868066 8.653436601161955 17.306873202323914 26.251484602689743 7.4241868406534186 6.2497042119503012 87.446280121803284 170.38504707813263 12.56156960129738 1058.1826800107956 17.223625600337982 11.790523409843443 44.695744588971138 4719.3337197601795 5.2502969205379513 18.218133345246315 290.19010764360428 7.2764213383197802 9.4598834514617902 6.5487792044878006 11.580723583698271 4.9631672501564008 38.523631513118744 204.19888114929199 13.235112667083738 5.435849845409396 5.6721911430358904 91.227740883827209 8.0356041193008405 19.37998640537262 5.6721911430358878 5.4358498454093924 4.9631672501564053 5.1995085477828979 7.3265802264213589 41.123385787010193 9.2173106074333173 8.980969309806822 6.1448737382888794 4.9631672501564008 6.8538976311683655 9.4536519050598127
leaf_count=4925 11223 5978 4239 887 1397 93 1514 351 6000 129 39 25 83 39 28 51 44 104 445 46 125 54 89 437 51 30 47 23 36 72 115 31 26 370 737 51 4538 74 51 188 20015 23 73 1247 30 41 27 49 21 163 864 56 23 24 386 34 82 24 23 21 22 31 174 39 38 26 21 29 40
internal_value=0 -0.0380595 -0.0653043 -0.089048 0.0616738 -0.120791 -0.0973837 -0.0984258 -0.0979928 -0.0870696 -0.0990154 -0.0138519 0.0274521 0.114853 0.00399208 -0.0540453 -0.00293294 -0.0630515 -0.0789662 -0.0447215 -0.00801888 0.0427092 0.0863588 -0.0626777 -0.0747428 -0.121227 0.139109 -0.0176115 0.0584462 -0.0413232 -0.070826 -0.0648921 0.158389 -0.100126 -0.10964 -0.0979259 -0.107822 -0.0947252 -0.0047716 -0.0951532 -0.0935545 -0.0254902 0.0803843 -0.118297 -0.124069 -0.0317269 0.0536754 -0.0912035 -0.0450196 -0.0755977 -0.0977541 -0.0801259 -0.0496271 -0.0895524 -0.113626 0.0789696 0.0341195 0.0666033 0.087915 0.0224424 -0.00466974 -0.114086 -0.0632657 0.0554944 -0.144479 -0.0267112 0.0822265 0.00713817 -0.128759
internal_weight=0 13611.9 12127.8 11075.5 580.433 233.619 10495 10098.8 10017 1636.94 1202.1 45.1478 35.7522 15.9718 29.2435 434.835 65.1411 369.694 286.765 158.406 82.9288 52.8821 40.6231 147.349 43.2672 128.359 21.874 21.3932 14.182 122.35 396.263 370.012 27.6429 8380.1 1574.34 6805.77 1663.22 5142.55 24.3521 5118.2 4787.5 68.1642 23.4684 330.699 313.475 23.2851 13.8252 605.034 75.1565 63.5758 529.877 325.678 171.584 130.933 113.444 40.6507 32.6151 17.4893 15.5985 22.2161 10.1627 154.095 57.6673 16.5439 96.4272 11.8171 16.7802 11.8171 47.9773
internal_count=68431 57208 51230 46991 2405 1008 44586 42926 42575 6920 5111 186 147 64 121 1809 271 1538 1193 659 345 220 169 613 180 534 91 89 59 509 1660 1545 115 35655 6737 28918 7098 21820 102 21718 20299 284 96 1419 1345 98 57 2560 318 269 2242 1378 726 554 480 172 138 74 66 94 43 652 244 70 408 50 71 50 203
is_linear=0
shrinkage=0.1


Tree=3
num_leaves=70
num_cat=0
split_feature=9 6 8 17 6 7 8 7 5 7 7 5 9 5 9 8 8 8 5 6 10 8 5 8 7 8 8 5 7 5 7 8 15 8 8 8 5 5 8 5 5 15 7 8 8 7 6 5 8 9 7 11 6 5 8 7 15 8 11 8 8 7 6 6 6 8 5 8 5
split_gain=9539 6874.42 5993.99 1158.94 1086.54 45.4507 25.792 21.1221 20.497 57.2702 58.8679 24.1638 23.5066 22.8433 20.2587 43.2455 21.1593 44.8913 36.7653 21.0403 20.8613 20.21 42.8021 20.0558 18.8416 18.4485 59.872 17.8242 17.8721 24.8832 24.783 16.0079 50.762 29.9681 19.0544 22.2023 25.3411 45.2793 43.5001 34.05 51.9186 42.6698 30.5974 40.2323 30.1157 36.1135 29.1205 20.5581 20.1973 18.0733 53.2347 41.4098 53.4298 20.007 18.305 15.8662 27.0054 26.1332 20.9699 45.4327 68.1257 49.0863 40.0577 37.8975 36.3789 56.5123 25.5551 71.0198 19.3797
threshold=2.6329888631496936 6.5000000000000009 0.39398542350681315 1.0000000180025095e-35 3.5000000000000004 32.920995819028612 0.37509246993743878 38.236757423801642 165.69961162301129 29.127887666067469 29.519122298200937 138.49326093515751 1.0000000180025095e-35 161.73563628440496 1.0000000180025095e-35 0.23901206332875244 0.22799282207265489 0.22209381824760757 47.041179138559393 1.5000000000000002 1.0000000180025095e-35 0.32368711054100191 343.27897764710514 0.36193487717736156 32.774785875883943 0.13676096575025462 0.093971330419802962 483.89823430137284 9.7018850359959643 466.6499498532026 10.36234153279397 0.36518835666550636 1.0000000180025095e-35 0.37091376061241971 0.33339338393514262 0.28382721900844804 72.779827353732017 102.85775058080728 0.301401356399632 138.49326093515751 147.81546048265997 1.0000000180025095e-35 23.018220679560994 0.3222813450025997 0.30665159004117187 21.804266983902544 4.5000000000000009 89.248704004052996 0.2892167023613425 1.0000000180025095e-35 14.856443649854667 1.0000000180025095e-35 2.5000000000000004 98.105680234152899 0.25520937243164271 7.0429056581171663 1.0000000180025095e-35 0.3601302623503474 1.0000000180025095e-35 0.27813167046554704 0.29890269443777306 6.7950119588260423 2.5000000000000004 3.5000000000000004 5.5000000000000009 0.2892167023613425 236.82934943277596 0.17770981510486358 428.91496113694092
decision_type=2 2 2 2 2 2 2 2 2 2 2 2 2 2 2 2 2 2 2 2 2 2 2 2 2 2 2 2 2 2 2 2 2 2 2 2 2 2 2 2 2 2 2 2 2 2 2 2 2 2 2 2 2 2 2 2 2 2 2 2 2 2 2 2 2 2 2 2 2
left_child=1 2 3 6 5 -5 7 8 9 13 11 12 -11 31 15 25 17 20 19 -18 -16 22 -7 -15 -21 26 -12 28 -8 30 -30 34 33 -33 35 49 44 38 -38 -39 41 46 43 -40 45 48 -41 -44 -37 50 51 53 -53 -1 -54 56 58 -58 64 61 -61 66 -62 -63 68 -66 67 -60 -10
right_child=-2 -3 -4 4 -6 21 27 -9 55 10 14 -13 -14 23 16 -17 18 -19 -20 24 -22 -23 -24 -25 -26 -27 -28 -29 29 -31 -32 32 -34 -35 -36 36 37 39 42 40 -42 -43 47 -45 -46 -47 -48 -49 -50 -51 -52 52 54 -55 -56 -57 57 -59 59 60 62 63 -64 -65 65 -67 -68 -69 -70
leaf_value=0.26959562017871502 0.17032780116477297 0.17032780116477297 0.17032780116477297 -0.13058477202835841 0.17032780116477297 0.18897992154775195 -0.12223404336851076 -0.14290231727504207 -0.14000549555035063 -0.00071683035721869593 -0.15928056470283322 -0.051000455543298767 0.23114295682318564 -0.055821572935974811 -0.063319879829851836 0.16746520632853384 0.1461735954125277 0.23380687795080013 -0.12865577277756876 0.050192007728907341 0.089351652534487888 -0.16317550047313623 -0.083112736069435075 0.10669221803794791 -0.12494500579943409 -0.16058170324130988 0.2552028166325902 -0.14666916225502738 0.12096403624978021 0.1529770492428682 -0.059676958631530767 0.092660090196903577 0.27564170783367847 -0.15465247281488975 -0.13526570338067065 0.06486574269626702 -0.15464347682150992 -0.13466204767792195 0.26754822610764312 0.26144560187620786 -0.15356189187223943 -0.15383730856640923 -0.15657225132135874 -0.048616074835149146 -0.15515672457368232 0.12321741190124658 0.001537289255165563 0.10451270612903694 -0.15596450318701072 -0.10564870158576822 -0.10014878056100658 0.23217412498723333 -0.15354852584938491 0.044959235116744989 0.055970982838305074 -0.093747399088200525 -0.13308133663548047 0.086650086529487441 0.25686772545354586 0.18962757199617594 0.079955039217386642 -0.15578976958941365 -0.15454674968091897 0.17839498253227126 0.27324950585307745 -0.15371088108748365 -0.10133972217276387 -0.15318195329415021 0.0052144028687111117
leaf_weight=7.6681564897298804 2720.6014253050089 1449.1450878083706 1027.5888302475214 195.73851929605007 338.65100161731243 10.949861049652105 40.157690554857254 78.170550391077995 72.609028622508049 6.4734155833721205 8.4118060469627398 7.8727896660566321 13.473615616559982 79.364819273352623 102.43960946798325 12.226386725902556 7.2452426403760901 5.865362584590911 88.600766211748123 11.018068775534632 9.8068405985832197 5.8145040273666373 12.248361527919768 8.397264435887335 13.882389917969702 10.793732374906538 5.9502844661474219 24.948833510279655 7.7850402742624274 5.8433479070663443 310.92979034781456 7.0206207782030168 4.8532433807849875 16.218528538942337 106.34053874015808 5.4745652675628689 7.9940326511859885 44.381979569792747 14.707856819033625 11.058492168784147 14.760949760675429 5.6870005428791037 5.7663003206253034 5.5412145853042594 48.050711736083031 10.391869276762007 7.0647836327552787 6.3230018317699432 17.010918065905571 672.62339568138123 149.60891708731651 5.638327673077586 19.532356917858127 8.2095526158809644 5.3016759455204001 7753.5290150642395 89.701348558068275 5.7601948231458655 7.5943036228418377 19.255045369267464 12.943541094660761 4.5945477187633541 16.660778522491455 12.980500891804693 6.2649045288562757 6.1366050392389297 127.58382174372673 9.5170837938785535 10.521152481436728
leaf_count=33 11223 5978 4239 887 1397 44 170 351 318 27 36 33 55 337 431 50 30 24 379 46 41 25 52 35 59 46 25 115 33 24 1318 30 21 71 465 24 35 194 63 47 65 25 25 24 210 44 31 27 74 2939 653 23 86 35 22 33903 394 25 32 82 56 20 73 56 27 27 554 42 46
internal_value=0 -0.0352311 -0.0604466 -0.0824328 0.0571949 -0.113272 -0.0901282 -0.0911281 -0.0907132 -0.0803609 -0.041305 0.097347 0.155897 -0.0895311 -0.0552685 0.0131857 -0.0659818 -0.0358884 -0.0954186 -0.00380932 -0.0499811 0.00353377 0.0453185 -0.0402719 -0.0474496 -0.0617982 0.0124419 -0.0648958 -0.059302 -0.0515154 -0.0552646 -0.0931121 -0.0185085 -0.0799386 -0.0948895 -0.0908872 -0.0612182 -0.0326775 0.0542352 -0.0749351 -0.00621026 0.0851389 0.10587 0.181029 -0.104697 -0.0309492 0.160129 -0.0200184 -0.102199 -0.0978628 -0.0711379 0.0225037 -0.0457251 0.153448 -0.108819 -0.0927429 -0.0733753 -0.119823 -0.0589165 -0.0413264 0.0432122 -0.0667809 -0.0520183 0.0910309 -0.0977914 0.0619779 -0.0859491 0.0288046 -0.121626
internal_weight=0 13262.7 11813.5 10785.9 563.402 224.751 10222.5 9832.87 9754.7 1599.05 304.06 27.8198 19.947 1294.99 276.24 37.3822 238.858 118.112 120.746 32.1457 112.246 29.0127 23.1982 87.7621 24.9005 25.1558 14.3621 389.665 364.716 324.558 318.715 1207.23 28.0924 23.2391 1179.14 1072.8 204.214 123.286 40.3324 82.9532 38.5712 23.8103 32.3384 20.2491 80.9281 32.8774 18.1233 12.0893 22.4855 868.582 195.959 46.3501 30.4724 15.8777 24.834 8155.65 402.123 95.4615 306.661 211.13 48.8594 162.27 29.6043 17.575 95.5317 12.4015 144.695 17.1114 83.1302
internal_count=68431 57208 51230 46991 2405 1008 44586 42926 42575 6920 1282 115 82 5638 1167 157 1010 496 514 135 472 121 96 372 105 107 61 1660 1545 1375 1351 5266 122 101 5144 4679 888 536 174 362 168 103 139 87 352 142 78 52 98 3791 852 199 131 68 108 35655 1752 419 1333 915 211 704 129 76 418 54 628 74 364
is_linear=0
shrinkage=0.1


Tree=4
num_leaves=70
num_cat=0
split_feature=9 6 8 17 6 7 8 7 5 7 7 8 7 7 14 9 7 7 8 5 8 6 11 13 7 13 8 5 8 8 8 5 7 6 5 5 7 5 8 9 8 8 8 5 10 5 14 8 8 7 7 8 7 7 7 5 5 9 8 5 14 8 8 6 5 6 9 5 7
split_gain=8036.04 5780.67 5033.08 966.84 918.525 39.5682 22.9866 19.6296 17.3698 49.9889 68.7606 20.9653 42.1676 31.8055 24.8393 20.1274 25.1535 82.1507 43.6651 27.4726 40.5517 27.0594 39.4194 18.2072 39.864 17.9092 17.0828 35.44 16.8177 27.8931 42.2101 18.5411 18.6031 23.1121 30.8443 17.3972 30.5525 17.2229 26.6317 16.7123 34.8593 18.252 35.933 31.6451 20.3598 28.934 19.5201 19.444 46.2623 16.6532 22.2737 27.8745 22.0198 25.4973 38.8743 19.1637 41.7644 33.5515 31.0756 24.5258 21.6694 30.8955 18.1002 29.166 34.3195 34.7259 16.5617 24.4449 22.1549
threshold=2.6329888631496936 6.5000000000000009 0.39398542350681315 1.0000000180025095e-35 3.5000000000000004 32.920995819028612 0.37509246993743878 38.236757423801642 165.69961162301129 29.188180800629521 29.519122298200937 0.35874766116975609 27.882576524640829 16.94415233009946 1.0000000180025095e-35 1.0000000180025095e-35 14.856443649854667 14.481806006863337 0.20016451779068631 30.779592196946421 0.28382721900844804 2.5000000000000004 1.0000000180025095e-35 1.0000000180025095e-35 10.59258672991802 1.0000000180025095e-35 0.32368711054100191 343.27897764710514 0.33339338393514262 0.2918148820111422 0.30665159004117187 30.779592196946421 24.012809795838098 4.5000000000000009 128.46530406652516 72.779827353732017 14.985609117460976 93.341788671141117 0.29767970055338 1.0000000180025095e-35 0.23901206332875244 0.22799282207265489 0.22209381824760757 47.041179138559393 1.0000000180025095e-35 10.629911540573426 1.0000000180025095e-35 0.20416016777208817 0.19190825450247684 36.317681974796926 37.692480110452827 0.3868933829313862 31.518224974895038 29.798935731316018 30.4126670471986 352.09219131491994 330.6618355681299 1.6867032566913374 0.39082490737498138 252.9380447074092 1.0000000180025095e-35 0.3868933829313862 0.38901325351587274 4.5000000000000009 258.07861246253884 5.5000000000000009 1.0000000180025095e-35 390.94647940934192 19.060730874633368
decision_type=2 2 2 2 2 2 2 2 2 2 2 2 2 2 2 2 2 2 2 2 2 2 2 2 2 2 2 2 2 2 2 2 2 2 2 2 2 2 2 2 2 2 2 2 2 2 2 2 2 2 2 2 2 2 2 2 2 2 2 2 2 2 2 2 2 2 2 2 2
left_child=1 2 3 6 5 -5 7 8 9 11 -11 15 13 14 23 16 17 18 21 20 25 -1 -23 24 -13 -18 27 -7 29 -17 31 -31 37 -34 -35 -32 -37 -33 -39 40 -12 42 46 44 45 -43 47 48 -41 52 -51 -52 53 55 -55 56 58 -58 62 -60 -57 -62 63 -8 -65 -66 67 68 -10
right_child=-2 -3 -4 4 -6 26 49 -9 66 10 39 12 -14 -15 -16 28 19 -19 -20 -21 -22 22 -24 -25 -26 -27 -28 -29 -30 30 35 32 33 34 -36 36 -38 38 -40 41 -42 43 -44 -45 -46 -47 -48 -49 -50 50 51 -53 -54 54 -56 60 57 -59 59 -61 61 -63 -64 64 65 -67 -68 -69 -70
leaf_value=0.20269704162000571 0.15931364566091977 0.15931364566091977 0.15931364566091977 -0.12367651837225571 0.15931364566091977 0.17368694936200524 -0.08828858795642025 -0.1357725844126928 -0.1067314527533636 0.13592396888680303 -0.05744872862418942 0.22921048478460412 0.21767957859611459 -0.15071434192337019 -0.089774465128204001 -0.09719267756978936 -0.14915227305850928 0.24892222000814268 -0.11414180319720786 -0.096227174036197446 0.26802083529789505 0.15614175874141034 -0.14675189488711668 0.25404794944040859 -0.14797664776946973 0.052191989036652203 -0.15386114276367699 -0.07638506904607878 -0.13982830296595106 -0.14678790670834077 -0.14706639289146811 0.23690007485587627 -0.15356375704513991 0.16084344332228884 -0.14833354365091866 0.067164944529266357 -0.10053790581606133 0.21081874335400436 -0.020257466474771606 -0.030341804913243998 0.14812796062912356 -0.027171334634105433 0.20601561733689469 -0.12025934208067995 -0.16372398333221863 0.21468568607431715 -0.15507535038546921 -0.12227635227212441 0.25434786781451874 0.14767880861349 0.14314935997996395 -0.15805897414951786 -0.13264411800827444 0.20603901216084475 -0.048461800229785759 -0.12382970806923561 0.20357529057028825 -0.081220113402201047 0.1844990401843794 -0.049415614484483755 0.088317477967794183 -0.15721387373048568 -0.15805897414951786 -0.099791824992435024 0.20728806185659213 -0.071999450112523039 -0.083858747053034755 -0.11884230129251179 -0.077798375763510286
leaf_weight=7.9947844296693829 2622.7543070018291 1397.0262182354927 990.63133808970451 186.48488153517246 326.47133269906044 10.73270976543427 99.10363844037056 74.250081792473793 419.82011276483536 21.263449311256409 24.529486835002899 5.1599371284246462 6.4237542748451224 20.351719155907631 13.268957242369654 719.72802954912186 9.0587383061647451 10.30054561793804 43.960381358861923 162.35297021269798 5.1451447010040274 7.4257484674453744 10.196504801511765 4.971972942352294 6.1316728591918945 8.6228978037834167 5.5627015233039847 12.007241249084471 70.207510411739349 6.2918423116207114 35.659796804189682 6.0967340916395214 9.3826935440301913 8.9433963596820814 5.0479987114667884 14.535496950149534 43.001463368535042 7.1030279695987728 16.746550917625427 72.184215486049652 12.427296325564383 18.868030011653907 5.9827811419963828 85.470687910914421 6.358205407857894 6.7039001435041419 14.197283089160917 18.313390016555786 6.1981173753738394 8.8310969471931458 4.6479457616806039 9.0634942352771741 42.207942485809326 9.0634942352771777 17.767435431480408 79.122198835015297 11.355207413434984 6.5071240663528434 8.6845746040344256 9.2636318206787092 12.765213921666147 8.5624074935913068 22.542536944150925 13.895447731018065 12.3170562684536 6.9719186425209037 6441.6981171220541 346.27548670768738 716.06544330716133
leaf_count=32 11223 5978 4239 887 1397 44 427 351 1912 87 107 21 26 92 60 3239 41 43 199 727 22 31 47 21 28 38 25 52 320 29 164 25 42 38 23 62 191 31 74 306 50 81 24 379 27 27 62 78 26 38 20 39 184 39 78 349 49 28 37 40 55 37 97 60 53 30 28918 1605 3220
internal_value=0 -0.0327423 -0.0561359 -0.0765041 0.0536501 -0.106956 -0.0835932 -0.0845557 -0.0841546 -0.0744971 -0.0372426 -0.0831173 -0.0234727 -0.0545267 0.011759 -0.0858979 -0.0615522 -0.014648 -0.0536681 -0.0817846 0.0209368 0.0501085 -0.0191171 0.094597 0.0243869 -0.0509616 0.00321786 0.0416429 -0.0927429 -0.0889542 -0.0501511 0.0155642 0.0347218 -0.0321357 0.0492945 -0.0921852 -0.0581713 0.0869064 0.0485631 -0.0508181 0.0116796 -0.060677 -0.0327024 -0.0885264 -0.00358373 0.0362336 -0.0455815 -0.0295051 -0.00782984 -0.0595608 0.0238194 -0.0559545 -0.06478 -0.0557703 0.0375086 -0.0643681 -0.0457433 0.0998263 -0.0607927 0.0637684 -0.0997156 -0.0102561 -0.075232 -0.0611179 0.020026 0.106341 -0.0860517 -0.0955827 -0.088492
internal_weight=0 12866.3 11469.3 10478.6 541.259 214.788 9937.39 9554.72 9480.47 1556.61 292.497 1264.11 56.308 49.8843 29.5325 1207.8 265.058 79.878 69.5774 185.18 22.8268 25.617 17.6223 16.2636 11.2916 17.6816 28.3027 22.74 942.745 872.537 152.809 59.6122 53.3204 23.3741 13.9914 93.1968 57.537 29.9463 23.8496 271.233 36.9568 234.277 116.876 117.401 31.9301 25.5719 110.893 96.6957 78.3823 382.672 22.5425 13.7114 360.13 317.922 26.8309 291.091 190.641 17.8623 172.779 17.9482 100.45 21.3276 154.831 132.288 33.1844 19.289 7923.86 1482.16 1135.89
internal_count=68431 57208 51230 46991 2405 1008 44586 42926 42575 6920 1254 5666 248 222 130 5418 1180 352 309 828 101 110 78 70 49 79 121 96 4238 3918 679 262 233 103 61 417 253 130 105 1167 157 1010 496 514 135 108 472 410 332 1660 97 59 1563 1379 117 1262 821 77 744 77 441 92 667 570 143 83 35655 6737 5132
is_linear=0
shrinkage=0.1


Tree=5
num_leaves=70
num_cat=0
split_feature=9 6 8 17 6 7 8 7 7 5 7 7 6 5 7 7 5 13 7 7 6 11 6 5 7 5 15 5 8 8 8 5 5 7 7 8 8 13 8 8 8 5 10 8 9 7 7 8 7 5 13 5 7 15 11 6 5 5 5 12 5 8 6 8 5 15 8 9 5
split_gain=6834.99 4898.38 4252.48 807.649 784.004 34.5329 20.1669 18.5036 15.9848 37.9509 69.5093 26.0052 49.5863 21.9232 21.6554 50.1935 39.1761 34.0361 49.8 44.2841 30.6499 27.0611 21.4764 20.0989 32.6696 79.1572 26.0836 59.1373 44.0462 57.9692 42.8117 19.409 44.2447 19.2082 47.1343 50.409 44.0523 26.1923 47.1517 21.9031 64.158 18.0265 17.8467 23.8191 31.8119 25.8053 30.9699 20.0646 23.7262 19.8615 19.1524 28.1825 27.2145 31.0217 24.6196 22.9523 21.6688 23.3304 32.5329 30.2707 33.6465 35.3636 55.6848 36.3061 23.9827 40.8147 34.9498 23.7172 20.8944
threshold=2.6329888631496936 6.5000000000000009 0.39398542350681315 1.0000000180025095e-35 3.5000000000000004 32.920995819028612 0.37509246993743878 38.236757423801642 30.556172477098009 182.81305927108841 30.909385982682423 37.359646046875106 2.5000000000000004 180.84354891603002 35.421407459943701 34.614464840954909 98.105680234152899 1.0000000180025095e-35 32.774785875883943 31.206469657809663 3.5000000000000004 1.0000000180025095e-35 4.5000000000000009 372.80740838345258 30.909385982682423 430.77606586229939 1.0000000180025095e-35 438.21489476893333 0.18577905464726358 0.23405377573525413 0.29034159760226419 168.33911792511984 119.73902418800331 34.614464840954909 33.452480106916234 0.19324545214447661 0.067580117807873166 1.0000000180025095e-35 0.22966686162105637 0.12919002978560748 0.17228572024984418 551.86339132981823 1.0000000180025095e-35 0.053464458088848803 1.0000000180025095e-35 11.189681072329632 27.262536039541917 0.049925626919716359 26.038341754449291 383.44784785962867 1.0000000180025095e-35 1.0000000180025095e-35 17.444451104265607 1.0000000180025095e-35 1.0000000180025095e-35 2.5000000000000004 10.629911540573426 170.97614979026247 182.81305927108841 1.0000000180025095e-35 163.71833716747096 0.15127358128504878 3.5000000000000004 0.10071014948301212 138.49326093515751 1.0000000180025095e-35 0.27150855239222915 1.6867032566913374 574.3824987689319
decision_type=2 2 2 2 2 2 2 2 2 2 2 2 2 2 2 2 2 2 2 2 2 2 2 2 2 2 2 2 2 2 2 2 2 2 2 2 2 2 2 2 2 2 2 2 2 2 2 2 2 2 2 2 2 2 2 2 2 2 2 2 2 2 2 2 2 2 2 2 2
left_child=1 2 3 6 5 -5 7 8 42 10 -10 13 -13 14 15 17 -17 18 19 -12 -18 -21 -14 33 25 -25 41 28 -28 -30 -31 32 -23 34 -11 36 -36 -37 -39 -38 -41 -26 50 44 -44 -46 47 48 49 -47 56 52 53 -52 -54 -53 -1 59 -59 -58 61 62 -61 -64 65 -63 -67 -62 -57
right_child=-2 -3 -4 4 -6 -7 -8 -9 9 23 11 12 22 -15 -16 16 20 -19 -20 21 -22 31 -24 24 26 -27 27 -29 29 30 -32 -33 -34 -35 35 37 39 38 -40 40 -42 -43 43 -45 45 46 -48 -49 -50 -51 51 55 54 -55 -56 68 57 58 -60 60 67 64 63 -65 -66 66 -68 -69 -70
leaf_value=-0.13265006507919155 0.15057845961871566 0.15057845961871566 0.15057845961871566 -0.11763613995408949 0.15057845961871566 0.0029833979195304778 -0.054920200553077073 -0.12974035571281836 0.18565778928321247 -0.090321453665939716 -0.14800549622797807 0.23397328654732186 -0.15588900973773423 0.11463298486748497 -0.1228655436301484 -0.15289161849422317 -0.058435099064532293 -0.13296688382247457 -0.1020556059805514 -0.065054163770272608 0.20188429963550028 0.17640868196410009 0.062209021726177385 0.22164285843046111 -0.085900338339605017 -0.14648199162594133 -0.14413309832324375 -0.1059259694796312 0.29339061631197577 -0.14410767633169833 0.14479709209059385 0.32429634996221218 -0.15126435549978001 -0.1086894681276519 -0.14399035068746216 -0.11258773323600212 0.28706218490120022 0.30399558350916683 -0.04514514189350232 -0.14772873001218631 0.23322767009556494 0.045691538609005225 -0.14328920013967791 -0.094699463889574342 -0.14427213727710905 0.088729474929098218 -0.14286888003651946 0.29483100714853072 0.25855286539198158 -0.14286888003651946 -0.014080906685627196 -0.088039635620974929 0.11069132543646354 0.26606755572867552 -0.14919549519257069 -0.067550013794187638 -0.07741261019899022 -0.13887017231784915 -0.082655552988800965 -0.14788126502467505 0.2062379208377938 -0.12982879090875363 -0.031035545258486643 0.18132013319151444 -0.0015830838694208976 0.23733162929931328 -0.069934562212691051 -0.037159517750084768 0.033912849040415999
leaf_weight=83.162197291851044 2503.5072027146816 1333.5085144639015 945.59093222022057 176.9500715136528 311.62786796689034 27.412448778748512 375.01785881817341 70.144185408949852 13.552149116992949 395.49043066799641 9.805641829967497 9.2595048695802706 9.3515218794345873 7.1972079128026953 47.343591287732124 6.0722889602184322 6.1664346605539349 54.861931934952736 51.724591925740242 8.4922962039709073 16.969568699598312 18.00269281864167 8.7298960238695127 13.021860256791117 248.50977931916714 10.592715337872503 7.8552674651145926 36.999279692769051 12.108901634812353 9.1261395961046237 11.711603522300718 4.6918849498033515 5.3440186083316794 247.85394196212292 6.5760775953531256 41.837320372462273 7.7123970389366177 4.6260804086923626 23.607330963015556 7.1824762523174313 11.49743217229843 10.865181431174276 16.849318504333496 1095.3683108091354 7.6548338681459418 10.670999571681032 6.0906674563884726 4.6932046115398398 4.9351768344640723 5.6706214249134055 8.5866023004055005 672.60406509041786 5.3204948008060464 7.3241870403289786 11.575874283909798 1783.4694074094296 468.5278390198946 106.25552187860012 3308.7972840517759 12.611012652516363 9.7501818686723727 73.370092615485191 13.215499982237814 20.60200671851635 35.742887511849403 6.0094786882400504 9.64005199074745 6.7923487573862067 20.529891446232796
leaf_count=395 11223 5978 4239 887 1397 121 1660 351 56 1837 45 38 41 31 212 27 27 248 233 39 72 75 38 58 1152 49 37 175 54 43 50 22 24 1150 31 194 34 21 109 33 52 50 80 5092 36 46 29 21 21 27 39 3115 24 32 53 8245 2165 499 15348 58 43 344 62 91 159 28 42 29 95
internal_value=0 -0.0305173 -0.0522591 -0.071134 0.0507577 -0.101457 -0.0776545 -0.0785742 -0.0781841 -0.0682815 -0.0352177 -0.0465555 0.0457832 -0.0572227 -0.0626128 -0.0469506 0.0731693 -0.0698934 -0.034606 0.0406868 0.132501 0.0913357 -0.050589 -0.0765705 -0.0571915 0.0565143 -0.065155 -0.0143711 0.068651 0.119384 0.0182678 0.138703 0.101405 -0.085938 -0.0746266 -0.0143859 0.0875841 -0.0623629 0.012062 0.145285 0.0867489 -0.080388 -0.0799386 -0.0914318 -0.0281533 0.0206931 0.0600804 0.107677 0.0663954 0.00836373 -0.0779518 -0.0710539 0.0210224 0.114879 -0.0673598 -0.0722736 -0.0821184 -0.0810862 -0.0844046 -0.0638177 -0.0298888 -0.0430489 0.0314564 0.0983339 -0.070775 -0.0985567 0.0480568 0.106299 -0.0663953
internal_weight=0 12440.8 11107.3 10161.7 515.99 204.363 9645.72 9270.7 9200.56 1384.74 277.565 264.013 27.3409 236.672 229.475 182.131 29.2083 152.923 98.0611 46.3365 23.136 36.5309 18.0814 1107.17 360.791 23.6146 337.176 77.8012 40.8019 32.9466 20.8377 28.0386 23.3467 746.383 498.53 103.039 32.9684 70.0707 28.2334 26.3923 18.6799 259.375 7815.82 1151.93 56.5648 39.7155 32.0607 25.97 21.2768 16.3416 6663.89 2509.41 32.8072 15.9108 16.8964 2476.6 4154.48 4071.31 3415.05 656.261 187.734 171.191 46.4285 33.8175 124.763 89.0196 15.6495 16.5425 1804
internal_count=68431 57208 51230 46991 2405 1008 44586 42926 42575 6357 1228 1172 117 1055 1024 812 126 686 438 205 99 160 79 5129 1668 107 1561 359 184 147 93 121 99 3461 2311 474 150 324 130 119 85 1202 36218 5352 260 180 144 115 94 73 30866 11603 148 71 77 11455 19263 18868 15847 3021 856 784 211 153 573 414 70 72 8340
is_linear=0
shrinkage=0.1


Tree=6
num_leaves=70
num_cat=0
split_feature=9 6 8 17 6 7 8 7 5 7 5 7 8 5 7 5 7 6 7 7 9 10 7 8 5 5 8 5 7 5 8 8 8 8 5 8 5 8 8 5 10 9 6 7 6 8 12 7 6 8 8 8 8 6 14 5 5 15 8 8 7 11 15 7 8 8 5 7 5
split_gain=5858.04 4175.88 3610.22 675.384 673.594 31.1286 18.368 17.5943 16.5302 14.6623 19.5817 19.9319 14.5623 29.7456 13.3333 49.8161 53.4976 32.2943 29.8738 47.591 40.0189 29.3288 41.7758 19.4119 31.5836 22.5857 21.7627 27.7287 37.635 42.4961 24.1087 30.3789 20.3842 20.0529 19.2868 18.6464 27.0347 18.0877 47.2177 52.7083 45.3146 27.178 50.3225 42.4348 60.1393 27.9552 31.2403 26.9365 50.9508 24.1441 32.9776 21.5015 19.5148 19.289 24.296 19.6032 43.8013 45.5433 47.6101 31.9953 17.962 58.2953 35.0889 54.7772 54.0264 26.2065 23.3218 20.4507 17.7666
threshold=2.6329888631496936 6.5000000000000009 0.39398542350681315 1.0000000180025095e-35 3.5000000000000004 32.920995819028612 0.37509246993743878 38.236757423801642 483.89823430137284 9.7018850359959643 466.6499498532026 10.36234153279397 0.32368711054100191 343.27897764710514 29.127887666067469 106.92186361506219 29.38529385262375 4.5000000000000009 30.682051530160319 32.168687141629853 1.6867032566913374 1.0000000180025095e-35 34.350835202883189 0.30665159004117187 510.30279978114174 534.77822649783127 0.077183800624782264 236.82934943277596 31.787790217525757 138.49326093515751 0.083779031622711872 0.079233973900301777 0.32521457548207988 0.053464458088848803 218.05436732282146 0.10888316678612561 123.77075123870186 0.16302979525938657 0.15127358128504878 355.86466161353866 1.0000000180025095e-35 1.6867032566913374 2.5000000000000004 29.639862438450777 4.5000000000000009 0.12575899793261033 1.0000000180025095e-35 35.421407459943701 5.5000000000000009 0.17228572024984418 0.17337251701665587 0.15891216144475628 0.12919002978560748 5.5000000000000009 1.0000000180025095e-35 371.5542290977462 380.94606434495648 1.0000000180025095e-35 0.23405377573525413 0.18703805389828812 33.653268597233492 1.0000000180025095e-35 1.0000000180025095e-35 34.140981513501437 0.3601302623503474 0.35112815594857205 301.51631240597811 31.411290567838765 270.26097884497932
decision_type=2 2 2 2 2 2 2 2 2 2 2 2 2 2 2 2 2 2 2 2 2 2 2 2 2 2 2 2 2 2 2 2 2 2 2 2 2 2 2 2 2 2 2 2 2 2 2 2 2 2 2 2 2 2 2 2 2 2 2 2 2 2 2 2 2 2 2 2 2
left_child=1 2 3 6 5 -5 7 14 9 -8 11 -11 13 -7 -1 16 -16 18 -18 -20 -21 22 -22 26 32 -26 27 28 -17 -30 31 -28 -25 -31 -34 36 -32 38 41 40 51 43 52 44 -37 46 47 48 -44 -39 -51 -40 -43 55 -55 68 59 -58 -59 -57 61 65 63 -62 -64 67 -67 -36 -52
right_child=-2 -3 -4 4 -6 12 8 -9 -10 10 -12 -13 -14 -15 15 23 17 -19 19 20 21 -23 -24 24 25 -27 30 -29 29 33 35 -33 34 -35 60 37 -38 49 39 -41 -42 42 45 -45 -46 -47 -48 -49 -50 50 53 -53 -54 54 -56 56 57 58 -60 -61 62 -63 64 -65 -66 66 -68 -69 -70
leaf_value=-0.074667144445207154 0.1435080994990626 0.1435080994990626 0.1435080994990626 -0.11225809837373849 0.1435080994990626 0.16177606343170881 -0.10445075663793346 -0.12454728841485188 -0.13456491403452595 0.11611127315593824 0.14253365146768865 -0.045558313330380261 -0.14646622529445075 -0.070525831027084013 0.17215302412799219 -0.14432236076386562 -0.11092006317504799 -0.1125115757351461 0.16910891863183528 -0.11122742307367083 0.18379615485561507 0.23128442216293835 -0.10128107369527686 -0.14189861806386936 0.22365632104895516 -0.03590685009978032 -0.072473428829040329 -0.12687655436095777 -0.14564731612854467 0.044952252748988182 0.1146637765716043 0.13680547301073076 -0.14266372151745452 0.26427146566288434 0.32592051641203362 -0.14263453758485409 -0.10818487979628251 -0.13136040103213348 0.26566271222750565 -0.081272137555180077 -0.14043113110593727 0.022207423110035464 0.29200972869491887 -0.11793455046546214 0.26892653561043289 -0.10831332234111116 0.24603582077712047 -0.14969044957232283 -0.14038708941159078 0.12541014659393376 -0.0471826501238964 0.083887807170900719 0.27635976073064222 -0.11298616814864562 0.051222397189995689 -0.064973081646442971 -0.077869581632059315 0.18618610380157991 -0.071944004681340587 0.2131962348916705 0.27412509671980029 -0.13453453243441607 0.22344523150682744 -0.10608655904844096 -0.14055057764965878 -0.14381388416486743 0.10436860068588905 0.033570864908458092 -0.084721358352083845
leaf_weight=7111.2061522006989 2370.9712126851082 1262.9124039411545 895.53122788667679 167.38249573111534 295.13024896383286 10.36934638023377 37.053452223539352 65.977384746074677 21.908801764249802 7.8275868296623221 5.9008471220731726 295.99812361598015 5.284528359770774 11.767381757497786 14.783718049526213 17.547278136014938 18.675453692674637 33.798772037029266 18.550418525934219 24.451117619872093 8.1213781982660347 7.5792800039052954 14.004753842949865 82.284092277288437 4.9355710148811331 10.450589224696158 13.901077151298525 109.79463492333889 7.8986299633979824 10.223424881696703 5.6962292194366446 13.843784898519514 43.666626274585724 7.0394734889268866 4.4661998450756091 6.9149504452943784 122.83759522438049 51.058907404541969 14.599393457174306 18.422076240181923 5.1221422106027594 5.1297527849674207 5.5782850086689049 85.413845747709274 7.2973407059907913 34.051293775439262 5.3045818209648123 9.4794962257146818 5.3279456347227097 9.4385461807250959 264.53629788756371 11.740203335881231 7.3499223589897156 109.9337246119976 9.8148039132356626 6.2137435674667385 95.111112371087074 15.325113743543627 13.387011006474493 12.3596323877573 4.1614760011434546 81.373265236616135 11.395907849073412 42.359076276421547 6.3497518748044959 9.1042873710393888 6.4821715801954261 5.1541335880756378 240.8883206397295
leaf_count=34020 11223 5978 4239 887 1397 44 170 351 115 33 24 1318 25 52 60 83 84 154 77 113 35 31 64 396 24 51 63 542 37 46 24 61 211 30 21 33 589 244 63 86 25 23 25 404 33 162 22 43 26 43 1256 53 32 524 47 29 455 65 64 56 18 388 50 205 31 43 31 25 1155
internal_value=0 -0.0285008 -0.0487233 -0.0662065 0.0482456 -0.0960784 -0.0721995 -0.0730969 -0.0503233 -0.0450011 -0.037889 -0.0413932 0.00268415 0.0382897 -0.0727164 -0.0650555 -0.00774863 -0.0289948 0.00189484 0.0308724 -0.0164782 0.0615117 0.00335628 -0.0698562 -0.0923424 0.0473558 -0.0646892 -0.100282 -0.0319133 0.046479 -0.0601887 0.0319499 -0.0995844 0.134386 -0.0833533 -0.0623581 -0.0983089 -0.0579564 -0.0325901 0.0530606 0.131718 -0.0574528 -0.0107448 -0.0913124 0.0686826 -0.0488963 0.0298582 -0.0263935 0.0807739 -0.0647488 -0.0603716 0.184641 0.171891 -0.0626561 -0.0995273 -0.0558405 -0.0230676 -0.0445478 0.0658331 0.120134 -0.0681941 -0.0933725 -0.0264379 -0.0720749 0.0932003 0.0395079 -0.0405986 0.169293 -0.0650738
internal_weight=0 12005 10742.1 9846.53 489.934 194.804 9356.6 8987.91 368.689 346.78 309.727 303.826 27.4213 22.1367 8921.93 1810.73 139.965 125.181 91.3824 72.7069 54.1565 29.7054 22.1261 1670.76 312.183 15.3862 1358.58 152.503 42.7088 25.1615 1206.08 27.7449 296.797 17.2629 214.513 1178.33 128.534 1049.8 221.731 49.8838 31.4617 171.847 72.2213 99.6261 14.2123 59.7416 25.6903 20.3857 10.9062 828.067 777.008 26.3396 12.4797 767.57 119.749 647.821 142.397 123.823 28.7121 18.5734 170.846 106.58 64.2662 46.5206 17.7457 25.2068 15.5865 9.62033 505.425
internal_count=68431 57208 51230 46991 2405 1008 44586 42926 1660 1545 1375 1351 121 96 42575 8555 618 558 404 320 243 130 99 7937 1494 75 6443 738 196 113 5705 124 1419 76 1023 5581 613 4968 1030 227 141 803 333 470 66 278 116 94 51 3938 3694 116 55 3651 571 3080 669 584 129 85 812 508 304 223 81 120 74 46 2411
is_linear=0
shrinkage=0.1


Tree=7
num_leaves=70
num_cat=0
split_feature=9 6 8 17 6 7 8 7 5 7 7 5 7 7 7 8 7 7 8 5 8 5 5 9 6 7 5 5 13 5 8 15 7 7 5 5 7 5 7 6 7 5 8 8 11 7 7 6 5 9 7 6 12 7 7 5 5 8 8 7 5 7 8 8 6 8 7 5 8
split_gain=5051.72 3577.57 3077.31 564.931 582.814 27.3419 16.4819 16.8268 15.2863 13.1367 12.826 15.8403 16.0915 12.844 30.3041 31.4739 20.0124 28.647 31.8409 35.5419 35.7726 15.0425 37.9314 31.6432 24.5094 17.0322 51.2046 16.4819 18.9536 30.7082 33.1637 30.2347 29.9556 56.4781 22.0338 11.8521 37.0406 28.451 25.9538 21.5987 62.705 34.9889 32.7068 32.6438 58.898 32.185 31.7562 26.9175 31.6306 24.7132 58.0614 38.7209 34.0638 19.4682 23.1115 97.6567 18.7944 18.611 23.023 28.8597 17.8982 18.5993 43.9245 31.8282 47.4788 42.9047 35.6869 27.4898 24.7917
threshold=2.6329888631496936 6.5000000000000009 0.39398542350681315 1.0000000180025095e-35 3.5000000000000004 32.920995819028612 0.37509246993743878 38.236757423801642 483.89823430137284 37.692480110452827 9.7018850359959643 466.6499498532026 10.36234153279397 36.317681974796926 36.878767677542946 0.38321896846123377 31.518224974895038 28.862465789996993 0.38901325351587274 270.26097884497932 0.37843143176552346 347.05793340919644 330.6618355681299 1.6867032566913374 1.5000000000000002 21.144684553313244 436.97570709692462 30.779592196946421 1.0000000180025095e-35 302.78732060652101 0.38321896846123377 1.0000000180025095e-35 16.087650358696276 15.431569540320174 305.96328501900433 165.69961162301129 27.047869375045369 163.71833716747096 14.6937572566067 3.5000000000000004 27.511174703961121 109.62674159143099 0.083779031622711872 0.12400005887739747 1.0000000180025095e-35 29.127887666067469 29.38529385262375 5.5000000000000009 47.041179138559393 1.6867032566913374 35.421407459943701 4.5000000000000009 1.0000000180025095e-35 25.59653721363453 25.380413077545693 116.37358440657661 145.1555208806308 0.26350950384995503 0.22314743744876156 32.518891757638322 216.10639846678495 30.682051530160319 0.25406015357061851 0.24395194716987348 4.5000000000000009 0.18577905464726358 32.041013097205301 184.78127660731931 0.18001536095932702
decision_type=2 2 2 2 2 2 2 2 2 2 2 2 2 2 2 2 2 2 2 2 2 2 2 2 2 2 2 2 2 2 2 2 2 2 2 2 2 2 2 2 2 2 2 2 2 2 2 2 2 2 2 2 2 2 2 2 2 2 2 2 2 2 2 2 2 2 2 2 2
left_child=1 2 3 6 5 -5 7 35 10 -7 -8 12 -12 16 -15 -16 17 21 19 -19 -21 22 24 -24 -14 -23 -27 -26 32 30 31 -30 33 -29 -31 36 37 53 -39 41 -41 45 -42 44 -44 -38 -47 49 -49 -45 51 52 -51 54 -1 -56 -46 58 59 -48 61 -37 63 65 -65 66 -63 -68 -69
right_child=-2 -3 -4 4 -6 9 8 -9 -10 -11 11 -13 13 14 15 -17 -18 18 -20 20 -22 25 23 -25 27 26 -28 28 29 34 -32 -33 -34 -35 -36 60 39 38 -40 40 42 -43 43 47 56 46 57 48 -50 50 -52 -53 -54 -55 55 -57 -58 -59 -60 -61 -62 62 -64 64 -66 -67 67 68 -70
leaf_value=-0.070844243885365879 0.13769167589465242 0.13769167589465242 0.13769167589465242 -0.10739016886376325 0.13769167589465242 0.038323392598096209 -0.098000080126276812 -0.12000484667782968 -0.13021900509305395 -0.13638856690678847 0.10210739448908124 0.12669778288361866 0.15090646044695544 0.2642978190123571 0.12282654618327507 -0.14711146080159412 -0.11772723394351539 0.26644308749942697 -0.14810273699301757 0.25498378423927182 -0.075441010627316424 -0.14804939855392585 0.25536609523352055 -0.057418567007119371 0.083356267067208945 -0.098468741237434765 0.27434604954938324 -0.10486945083532162 0.096718302507243351 0.30403086136725987 -0.1471049965254792 -0.14785556851554713 -0.14820499167581463 0.27913775812498354 -0.012181952189593276 -0.0880145593883052 -0.14342354396826673 -0.14685604042158815 0.049663920951225335 0.18901514085131424 -0.14432827213142679 -0.10370165770831173 0.2316690973832928 -0.049640013522031803 -0.1451115706517771 0.15353288885594191 -0.14617300640996161 0.14387050303844567 -0.12179444444710619 0.19942417681524643 -0.14136504541850792 -0.059481723647713904 -0.080378381671459095 -0.11901900783098956 -0.13758429625944088 0.36319853565407695 0.10592555853116073 -0.074517424707890967 0.15400462341013504 0.10469965401987234 -0.067375187741858036 0.2123649065594031 -0.12564829824604182 -0.068186540427030415 0.28024235412888682 -0.13900630901316474 0.090551834762778741 -0.13669508280781326 0.088054293007252427
leaf_weight=878.84755313396454 2231.2026117146015 1188.4637987017632 842.73971942067146 157.96336378157139 277.73233970999718 21.003659412264827 35.618647396564484 61.841131791472435 20.450958520174026 5.4127697646617881 8.0007268786430341 5.9701060205698004 5.8051687180995932 4.4688753634691265 7.7580886632204082 9.7450081855058652 35.387265861034393 8.6595543622970634 6.3516560345888129 4.529129400849345 11.84636068344116 29.032539695501328 7.8621935248374921 5.494864284992218 7.6273986697196952 22.609049007296566 4.4011715352535239 13.995466738939287 16.832663685083393 4.4144110381603223 21.755200579762459 7.2237846106290808 46.205370277166367 5.2730529606342307 4.3999747037887573 801.74989174306393 15.943762451410292 8.3779486119747144 33.964530363678932 14.346173048019407 21.367162451148033 89.942124709486961 13.895231127738953 59.969175562262535 8.9931421577930433 13.235425293445585 9.8735683858394676 5.0063230842351905 42.764557525515556 26.96666719019413 13.204521015286444 11.506451860070227 5.1880858391523352 83.854051232337952 10.512535259127619 6.1851912289857855 4.4619998186826715 29.183563396334648 10.836808174848555 8.5617170333862287 6281.3944286704063 8.0856319367885572 48.010075524449348 7.1735259145498249 8.5986406654119492 25.768454134464264 14.929203942418097 19.375580489635471 6.573085129261016
leaf_count=4355 11223 5978 4239 887 1397 93 170 351 115 28 33 24 25 19 33 45 164 37 29 19 53 133 33 25 34 104 19 64 75 20 100 33 211 23 20 4026 76 39 147 63 101 430 57 277 42 54 46 22 208 113 64 54 26 422 53 31 19 139 46 36 30950 36 247 36 38 128 66 99 29
internal_value=0 -0.0266529 -0.0454749 -0.0616651 0.0461888 -0.0916425 -0.0671588 -0.0680274 -0.0462426 0.00252462 -0.0412102 -0.0345922 -0.0378054 -0.0416432 0.0318775 -0.0274639 -0.0476327 -0.0370469 0.0518606 0.102593 0.0159478 -0.0507978 -0.0339808 0.126692 -0.0500527 -0.0948756 -0.0377206 -0.0591862 -0.0682389 -0.024747 -0.0576349 0.0232765 -0.104525 0.000218557 0.146183 -0.0676557 -0.0593279 -0.0694745 0.0107802 -0.0337456 -0.0133566 -0.0598861 -0.0269663 -0.0139024 0.0872649 -0.0149169 0.0136623 -0.030712 -0.0939531 -0.00485434 0.0423755 0.0979444 0.154279 -0.0729441 -0.0686299 0.0479163 -0.0618625 -0.0180069 0.0383327 -0.0296627 -0.0693013 -0.0821687 -0.0483314 -0.00731679 0.121769 -0.0345604 0.0204073 -0.0175619 -0.0797636
internal_weight=0 11565.5 10377.1 9534.32 462.112 184.38 9072.21 8710.49 361.719 26.4164 341.268 305.649 299.679 291.678 21.972 17.5031 269.706 234.319 31.3867 25.035 16.3755 202.932 146.89 13.3571 133.532 56.0428 27.0102 127.727 120.1 54.626 45.8116 24.0564 65.4739 19.2685 8.81439 8648.65 1426.99 1021.74 42.3425 405.246 227.669 177.577 213.323 191.956 27.3504 87.6348 71.6911 164.606 47.7709 116.835 56.8657 43.6612 32.1548 979.399 895.545 16.6977 13.4551 58.4557 29.2721 18.4353 7221.66 940.264 138.514 90.5041 15.7722 74.732 48.9635 40.8779 25.9487
internal_count=68431 57208 51230 46991 2405 1008 44586 42926 1660 121 1545 1375 1351 1318 97 78 1221 1057 138 109 72 919 663 58 605 256 123 580 546 248 208 108 298 87 40 42575 6920 5047 186 1873 1046 827 983 882 118 397 321 764 230 534 257 193 139 4861 4439 84 61 267 128 82 35655 4705 679 432 74 358 230 194 128
is_linear=0
shrinkage=0.1


Tree=8
num_leaves=70
num_cat=0
split_feature=9 6 8 17 6 7 8 5 6 7 5 5 7 5 5 5 8 7 7 7 5 5 8 5 5 5 5 8 8 15 5 13 9 5 9 5 9 8 5 8 7 7 7 7 8 8 7 7 6 7 13 8 5 8 7 7 5 5 6 8 13 15 8 8 11 7 7 9 9
split_gain=4378.53 3077.43 2631.74 472.771 506.477 24.5151 13.8019 22.9589 18.0553 25.7333 30.0491 37.1643 29.7893 28.7175 21.3881 18.7441 29.4093 39.2867 54.8662 28.0415 36.8488 44.3664 16.385 66.0826 21.331 37.7278 30.6931 31.9353 45.9259 19.1726 64.9201 17.2812 21.4741 52.8788 35.8973 17.563 16.1988 15.6388 19.8742 24.3451 50.7906 27.3069 26.2949 35.4531 25.5254 16.0331 15.3818 15.2472 13.277 12.7792 12.5967 12.2947 24.2698 11.3155 11.2588 29.5283 46.6853 40.9261 52.0839 22.3135 21.7714 29.5163 52.2753 22.9582 25.9288 21.8718 68.9337 42.9386 29.4778
threshold=2.6329888631496936 6.5000000000000009 0.39398542350681315 1.0000000180025095e-35 3.5000000000000004 32.920995819028612 0.36193487717736156 483.89823430137284 3.5000000000000004 17.030265578014852 174.92713182130063 109.62674159143099 18.538899917248301 466.6499498532026 30.779592196946421 214.15732057616628 0.37843143176552346 21.074275394173014 20.330068967978523 20.708526509915917 335.71254246035301 248.43447835092545 0.36348692311810166 291.3352353987728 420.2223072216525 369.04699848706395 425.81186534927548 0.37397917713479295 0.37843143176552346 1.0000000180025095e-35 330.6618355681299 1.0000000180025095e-35 1.0000000180025095e-35 218.05436732282146 1.6867032566913374 293.2459679547855 1.6867032566913374 0.36691957120225932 293.2459679547855 0.37397917713479295 29.293028170227156 16.826421157930323 28.862465789996993 31.518224974895038 0.38065515509645115 0.38321896846123377 19.278619409064106 38.236757423801642 5.5000000000000009 36.317681974796926 1.0000000180025095e-35 0.32368711054100191 343.27897764710514 0.13798135287272836 30.556172477098009 30.909385982682423 170.97614979026247 321.81047746315295 3.5000000000000004 0.14658957364546257 1.0000000180025095e-35 1.0000000180025095e-35 0.32630098957204096 0.25406015357061851 1.0000000180025095e-35 31.411290567838765 32.041013097205301 1.6867032566913374 1.6867032566913374
decision_type=2 2 2 2 2 2 2 2 2 2 2 2 2 2 2 2 2 2 2 2 2 2 2 2 2 2 2 2 2 2 2 2 2 2 2 2 2 2 2 2 2 2 2 2 2 2 2 2 2 2 2 2 2 2 2 2 2 2 2 2 2 2 2 2 2 2 2 2 2
left_child=1 2 3 6 5 -5 47 8 9 10 11 -8 50 15 -10 -14 17 18 -17 -18 21 -21 23 -16 25 29 -26 -28 -29 31 -31 37 33 -33 -34 -36 -22 -24 39 40 -39 45 -43 -44 -45 -41 -32 54 -25 -30 -11 52 -7 -54 -1 56 -56 -58 -59 -60 61 63 -63 64 -57 -66 67 -67 -68
right_child=-2 -3 -4 4 -6 51 7 -9 14 12 -12 -13 13 -15 22 16 19 -19 -20 20 36 -23 24 48 26 -27 27 28 49 30 46 32 34 -35 35 -37 -38 38 -40 41 -42 42 43 44 -46 -47 -48 -49 -50 -51 -52 -53 53 -55 55 60 57 58 59 -61 -62 62 -64 -65 65 66 68 -69 -70
leaf_value=-0.064809224288960729 0.13284329220779845 0.13284329220779845 0.13284329220779845 -0.10291722178465904 0.13284329220779845 0.15059276604144223 -0.13731470796347811 -0.11814329438470289 0.12343660254325738 0.2406813178463573 -0.11721391883213467 0.25041556426406392 -0.12158450089541779 0.1944131814719115 -0.084968639912764626 -0.10060176546876982 -0.14295575367734176 -0.12297793835127475 0.24977418701729173 0.15481219518017969 0.10486125791189463 -0.11691187225364844 -0.13432520270752876 0.36099504169961488 0.21692772799986801 -0.14030002608132364 -0.13529240062758427 0.30990052013524405 -0.14457644052551064 -0.12685407822125003 0.27176909872809935 -0.13767328111551397 -0.088856890268660893 0.25844297579975056 0.17219397518046789 -0.046600472476477875 0.3258219800071942 0.30454838705602416 -0.10628090722759057 0.23589814170825463 -0.13285010632742536 -0.14132411894055605 0.23329015765300812 0.13378748913882896 -0.14171238365875802 -0.0036255245988323723 0.042735044549514316 -0.11565257206146339 0.12228818980589902 0.080124097731196081 0.012681797047498229 -0.14059879785371934 0.059028336238670626 -0.14491700621093356 0.18560876312618102 -0.093779567421461721 -0.091830925101035632 -0.072295896233315504 0.015126762715701937 0.23864892212739519 -0.076598303133901688 -0.03390060870794618 0.13058073456161165 -0.086027914244545881 -0.11091852299657234 0.18901192835718486 -0.066626396588346321 -0.1352895956710464 0.0080397799575680062
leaf_weight=6868.3770694881678 2088.7013788819313 1112.559640288353 788.91607815027237 148.82217906415462 259.99428194761276 9.7978485226631218 4.7249175757169706 43.971706390380859 9.1337053924798948 5.0990074872970563 97.591963782906532 5.1848344504833221 33.608806103467941 4.7338411360979071 14.717419251799585 10.572445675730707 8.3698379546403867 51.587137266993523 7.7420345544815055 9.7089106589555758 8.8243259340524656 15.767738148570059 14.444615706801413 5.2070873528718931 7.3203040808439246 37.973064988851547 12.121879801154138 5.6242642998695365 5.7457660883665067 52.659373670816422 4.556390404701232 4.9586298018693915 22.919843405485153 10.519328758120535 11.604185268282892 5.3650509417057028 5.3168840259313574 7.0185451954603177 21.004515662789345 5.5948195010423643 4.2698753625154495 20.314183264970779 5.6163233816623714 4.811314493417739 11.172200530767439 5.5836374461650848 8.2264354377984983 55.871802181005478 4.2171958833932877 4.5237438380718231 4.617659404873848 4.896133989095687 4.5046631246805173 6.8686019033193588 11.766466274857519 79.858016386628151 44.975085541605949 18.357856750488281 6.814864099025729 12.958133175969122 430.62494821846485 121.81078071892262 22.965427502989769 196.12783198058605 29.321508377790451 22.432530477643017 137.89121191203594 4.9911032915115348 85.758975684642792
leaf_count=34933 11223 5978 4239 887 1397 44 24 244 41 21 481 22 161 19 72 53 40 258 39 42 38 76 76 26 35 188 63 26 27 261 20 25 112 48 50 28 25 33 101 23 23 99 23 22 54 25 36 339 21 20 24 25 19 33 50 408 231 94 31 59 2197 599 103 1012 154 106 686 26 413
internal_value=0 -0.0249422 -0.0424629 -0.0574461 0.0443331 -0.087248 -0.0624785 -0.0483927 -0.0432867 -0.0622523 -0.100367 0.0655478 -0.0375618 -0.0481279 -0.0274378 -0.0557066 -0.0369256 -0.078309 0.0475118 0.0233558 0.0584915 -0.0133604 -0.03177 0.0474253 -0.0382742 -0.0482318 0.0346021 -0.0130383 0.0802025 -0.0323864 -0.0777818 -0.0132445 0.0315629 0.13154 -0.00723078 0.103019 0.187939 -0.0380953 -0.0218161 0.00574084 0.139101 -0.022614 -0.0596506 0.0171616 -0.0587822 0.116256 0.124373 -0.0635925 0.254178 -0.0455953 0.132329 0.00221044 0.0352372 -0.0641394 -0.0632332 -0.0544084 -0.000820163 -0.0272155 0.0489979 0.161611 -0.0589005 -0.0480311 -0.00780941 -0.0584972 -0.0435091 -0.0291918 -0.0196474 0.129989 -0.0379955
internal_weight=0 11131.9 10019.3 9230.43 434.884 174.889 8795.55 644.646 600.674 273.45 107.502 9.90975 165.949 156.232 327.224 151.498 117.889 69.9016 18.3145 47.9877 39.6179 25.4766 318.09 24.1417 293.948 258.612 35.336 28.0157 15.8938 220.639 65.4422 155.197 55.367 15.478 39.8891 16.9692 14.1412 99.83 85.3854 64.3809 11.2884 53.0925 41.914 21.5998 15.9835 11.1785 12.7828 8150.9 9.42428 10.2695 9.71667 26.0672 21.1711 11.3733 8095.03 1226.65 94.8724 83.1059 38.1309 19.773 1131.78 701.157 144.776 556.381 360.253 280.395 251.074 27.4236 223.65
internal_count=68431 57208 51230 46991 2405 1008 44586 3145 2901 1323 527 46 796 751 1578 732 571 350 92 221 181 118 1537 119 1418 1247 171 136 73 1059 317 742 263 73 190 78 63 479 403 302 56 246 198 99 76 48 56 41441 47 47 45 121 96 52 41102 6169 465 415 184 90 5704 3507 702 2805 1793 1385 1231 132 1099
is_linear=0
shrinkage=0.1


Tree=9
num_leaves=70
num_cat=0
split_feature=9 6 8 17 6 7 8 8 5 5 6 6 5 5 7 5 12 5 8 9 5 5 5 8 9 12 7 7 14 7 6 13 5 5 7 8 5 5 7 5 5 5 5 11 5 9 6 15 7 9 7 16 9 8 5 5 5 9 13 8 8 10 5 9 6 7 8 6 11
split_gain=3811.16 2656.03 2256.72 395.466 442.328 21.4696 12.3 100.392 47.8854 46.4692 45.4105 68.1403 45.8512 48.1918 30.4426 45.4715 20.2579 27.8436 19.27 51.3844 55.2095 70.8734 91.0177 69.6986 66.4642 45.2995 39.2875 62.7006 34.9747 30.7245 26.359 38.0027 25.4738 55.4174 21.6534 21.0493 32.0944 62.2257 43.1482 26.4693 59.6365 49.8616 78.7423 43.1987 27.9435 31.3724 43.0947 35.9557 35.5029 26.5121 37.4368 25.0367 26.3741 51.6213 39.5388 41.7383 52.949 36.3499 30.9294 33.4553 54.2688 22.6058 21.8726 20.9088 33.1091 67.7292 20.9306 27.8077 20.4557
threshold=2.6329888631496936 6.5000000000000009 0.39398542350681315 1.0000000180025095e-35 3.5000000000000004 32.920995819028612 0.27946172685312504 0.28268612998289377 246.50276360622036 469.11670702297266 4.5000000000000009 3.5000000000000004 320.54466608081981 272.18118267592632 15.984462952423289 106.92186361506219 1.0000000180025095e-35 170.97614979026247 0.29890269443777306 1.6867032566913374 1.0000000180025095e-35 268.98034538107339 297.06495543148174 0.29563917450617788 1.0000000180025095e-35 1.0000000180025095e-35 22.041386114040822 23.018220679560994 1.0000000180025095e-35 5.8193339031794453 5.5000000000000009 1.0000000180025095e-35 320.54466608081981 309.77153401859158 20.069169063947193 0.33715848485979749 430.77606586229939 421.46487678563204 23.649915420131006 147.81546048265997 72.779827353732017 102.85775058080728 141.82663346975764 1.0000000180025095e-35 398.43518552668621 1.0000000180025095e-35 4.5000000000000009 1.0000000180025095e-35 34.846227125700075 1.6867032566913374 21.589983214828386 1.0000000180025095e-35 1.0000000180025095e-35 0.34069081278274244 378.44314853741417 287.51126598654304 216.10639846678495 1.6867032566913374 1.0000000180025095e-35 0.36518835666550636 0.36872201538928123 1.0000000180025095e-35 477.12738313813696 1.0000000180025095e-35 1.5000000000000002 21.804266983902544 0.30262812308552195 3.5000000000000004 1.0000000180025095e-35
decision_type=2 2 2 2 2 2 2 2 2 2 2 2 2 2 2 2 2 2 2 2 2 2 2 2 2 2 2 2 2 2 2 2 2 2 2 2 2 2 2 2 2 2 2 2 2 2 2 2 2 2 2 2 2 2 2 2 2 2 2 2 2 2 2 2 2 2 2 2 2
left_child=1 2 3 6 5 -5 -1 8 14 10 11 12 13 -10 15 -8 -16 -18 19 20 -9 25 -23 26 -25 -22 -24 -28 32 -21 31 -27 33 -29 -26 39 37 51 -39 40 -20 43 -43 -42 63 -46 48 49 -47 62 -51 52 58 54 55 56 57 -54 -37 -60 -61 -45 -48 64 65 -41 67 -66 -62
right_child=-2 -3 -4 4 -6 -7 7 18 9 -11 -12 -13 -14 -15 16 -17 17 -19 35 29 21 22 23 24 34 30 27 28 -30 -31 -32 -33 -34 -35 -36 36 -38 38 -40 44 41 42 -44 61 45 46 47 -49 -50 50 -52 -53 53 -55 -56 -57 -58 -59 59 60 68 -63 -64 -65 66 -67 -68 -69 -70
leaf_value=-0.060690124015278117 0.12875766079980455 0.12875766079980455 0.12875766079980455 -0.09875076444322467 0.12875766079980455 0.0020285792180655478 -0.13103622355941341 0.2762483131472297 0.24406021767223829 -0.085989101603575105 0.35125065208475009 -0.07263112725367725 0.36146268761755285 -0.13413917691866617 -0.11613627681456516 0.31014721304367066 0.18822730501262833 -0.13179968525698557 -0.10933749621891749 0.14051793035003696 -0.11152187739368191 0.32370776958549108 -0.081341032207820796 -0.02967324162586777 0.38839299726454923 0.23992916534785477 0.37678165723192619 -0.13372357205562352 0.26918456495979043 -0.083828514906800697 -0.13136463650136707 -0.044876960186066996 -0.096941288292498595 0.38858308375604106 0.14132480994096028 -0.11398871467851482 -0.09079558673105792 0.29563205197010917 0.0064454945267956162 0.25426290536456969 -0.065092672685203246 -0.13216727786910518 0.13372710314476274 0.2042550634768075 -0.13096044886967562 -0.07084416456489577 0.117916881053033 -0.13321040360835532 0.15947075635626509 -0.13495666731456579 0.16917059942325574 -0.10805307723065252 -0.13083427813845305 -0.042013558584037713 0.30734412261514832 -0.13464963543231998 0.25448287506676437 0.22313857186804695 -0.097988658639316953 0.2687116814385403 -0.11054947796221229 -0.016845557959536038 0.37257693749477111 -0.095224600931873279 -0.13356393707797207 -0.1328334824678763 -0.089617255342607505 0.21481803121928597 0.040689463970956206
leaf_weight=5803.4838585704565 1946.7776110321283 1036.9630721509457 735.31054915487766 140.04859472811222 242.32810501754284 24.896748781204224 3.9755637198686582 6.6900414973497382 7.9052137136459368 10.512497574090956 8.8101662546396238 14.38985802233219 10.342470601201056 5.8718358874320984 27.613353937864304 5.6651432067155838 6.0494980961084348 4.9375992864370346 61.65413036942482 6.3148600161075583 81.973814249038696 10.019218996167181 57.679369524121284 11.149386927485466 9.1762897819280607 9.6619027256965673 5.0691033005714408 4.33555816113949 4.2052096873521796 183.2146655023098 6.5365777909755698 9.095468670129776 21.204416394233704 3.8223224580287933 5.7826221585273752 103.76653061807156 175.68274690210819 8.7102973312139529 12.656447887420653 9.8230913132429141 11.591223075985907 35.29710665345192 16.27196329832077 24.307937696576122 32.760115846991539 98.550044894218445 8.7266941517591494 7.1041310578584662 7.1806535720825186 7.4846287518739727 8.8137980550527555 65.186836153268814 10.228550270199777 703.49285784363747 6.0698343217372885 10.688705235719679 12.007641792297362 4.0497184097766867 40.833141341805458 7.7042396217584601 15.495632022619246 5.7105947583913794 5.4973425716161719 555.11638201773167 3.9510353803634626 8.3725261986255628 76.606972336769104 5.4536347091197968 21.148910015821457
leaf_count=30370 11223 5978 4239 887 1397 121 22 29 41 56 45 75 52 31 146 26 28 27 333 30 432 52 305 58 48 47 26 23 22 964 36 49 111 20 30 549 943 43 60 53 58 192 75 106 182 511 46 38 32 39 45 342 57 3593 28 56 61 20 216 33 80 29 28 2933 21 45 409 29 100
internal_value=0 -0.0233418 -0.039642 -0.0534916 0.0427776 -0.0835392 -0.0580862 -0.0525508 0.0428258 0.104191 0.146442 0.0995854 0.202331 0.0828701 -0.0307397 0.128215 -0.0704397 0.0444072 -0.0564064 -0.0372074 -0.00709648 -0.0150043 0.0339304 0.010215 0.155138 -0.0754239 -0.0290693 0.0489655 -0.000538687 -0.0763536 0.0415641 0.101826 -0.0391679 0.111 0.292885 -0.0602316 -0.051313 -0.0445262 0.124334 -0.0710184 -0.0330415 0.0174417 -0.0482677 0.0988787 -0.0780567 -0.0426708 -0.0224948 0.0694136 -0.0552024 0.116575 0.0295081 -0.0481317 -0.0439563 -0.035509 0.0707975 0.0319655 0.0997166 -0.0304376 -0.0773315 -0.0326767 0.0274579 0.162194 0.216339 -0.087509 -0.0464074 0.0761445 -0.072333 0.0684578 -0.0232639
internal_weight=0 10713 9676.07 8940.76 407.273 164.945 8533.48 2730 106.073 57.832 47.3195 38.5094 24.1195 13.777 48.2412 9.64071 38.6005 10.9871 2623.93 435.931 246.401 239.711 132.443 122.424 26.1083 107.268 96.316 38.6366 33.5675 189.53 25.2939 18.7574 29.3623 8.15788 14.9589 2188 1197.72 1022.04 21.3667 990.274 154.833 93.1788 51.5691 41.6098 835.441 176.117 143.357 37.6266 105.731 30.5225 16.2984 1000.67 935.486 746.537 43.0445 36.9746 26.2859 14.2783 188.948 85.1819 44.3488 30.0185 14.224 659.324 104.207 18.1956 86.0116 9.40467 36.6445
internal_count=68431 57208 51230 46991 2405 1008 44586 14216 549 300 244 199 124 72 249 48 201 55 13667 2282 1288 1259 695 643 136 564 507 202 176 994 132 96 154 43 78 11385 6181 5238 103 5204 793 460 267 193 4411 921 739 196 543 158 84 5135 4793 3815 222 194 138 77 978 429 213 135 74 3490 557 98 459 50 180
is_linear=0
shrinkage=0.1


Tree=10
num_leaves=70
num_cat=0
split_feature=9 6 8 17 6 7 8 5 5 8 8 15 16 6 14 5 6 5 6 7 7 8 7 6 5 5 7 7 7 8 6 12 7 6 7 13 8 5 8 8 7 5 6 16 5 7 5 13 9 7 7 11 8 5 6 7 8 14 6 8 7 5 5 5 8 7 15 5 7
split_gain=3330.07 2299.2 1939.8 330.907 387.071 19.5612 12.8247 27.3702 47.8538 21.339 25.6796 19.607 27.1414 19.2373 23.3717 20.027 32.8002 26.8251 18.4971 18.5569 29.6578 18.4335 41.9811 17.7097 38.7673 17.2623 16.1678 14.1381 13.1952 25.0973 24.2988 17.9252 13.6354 12.8801 11.0037 19.8788 10.6257 20.8476 9.79117 9.7385 27.107 70.7602 51.0021 35.9137 32.8421 30.723 26.1084 54.5359 28.7525 27.2661 28.4496 26.5673 24.9944 37.8544 34.2696 36.3106 23.4621 54.1424 41.6494 44.6827 40.7247 31.4888 29.4391 56.8581 28.2294 32.0608 43.4381 30.0102 25.4096
threshold=2.6329888631496936 6.5000000000000009 0.39398542350681315 1.0000000180025095e-35 3.5000000000000004 32.920995819028612 0.37663183790377225 352.09219131491994 330.6618355681299 0.39082490737498138 0.38901325351587274 1.0000000180025095e-35 1.0000000180025095e-35 3.5000000000000004 1.0000000180025095e-35 297.06495543148174 2.5000000000000004 243.28105894381176 5.5000000000000009 34.614464840954909 31.787790217525757 0.38321896846123377 28.862465789996993 2.5000000000000004 236.82934943277596 256.15168748835384 38.236757423801642 18.153394833084636 21.144684553313244 0.38065515509645115 3.5000000000000004 1.0000000180025095e-35 36.317681974796926 3.5000000000000004 18.538899917248301 1.0000000180025095e-35 0.32368711054100191 343.27897764710514 0.13798135287272836 0.13406219340257344 12.815984066794099 548.81527410322258 5.5000000000000009 1.0000000180025095e-35 272.18118267592632 3.9891247878725475 226.48297297567038 1.0000000180025095e-35 1.0000000180025095e-35 8.4658974892824048 9.7018850359959643 1.0000000180025095e-35 0.081544349215153869 256.15168748835384 3.5000000000000004 29.293028170227156 0.14969554723398748 1.0000000180025095e-35 3.5000000000000004 0.14356715368993991 33.292813206958932 491.89153154474036 297.06495543148174 336.9744120666025 0.14658957364546257 13.093925740520048 1.0000000180025095e-35 147.81546048265997 30.682051530160319
decision_type=2 2 2 2 2 2 2 2 2 2 2 2 2 2 2 2 2 2 2 2 2 2 2 2 2 2 2 2 2 2 2 2 2 2 2 2 2 2 2 2 2 2 2 2 2 2 2 2 2 2 2 2 2 2 2 2 2 2 2 2 2 2 2 2 2 2 2 2 2
left_child=1 2 3 6 5 -5 26 8 9 10 11 12 13 14 15 16 17 -8 19 20 21 27 -23 24 -13 -19 39 -15 -9 -30 31 -31 -32 -10 -11 -36 37 -7 -39 40 41 42 44 -42 46 -44 48 -48 51 -49 -51 -1 53 -45 -55 -56 57 58 60 62 -41 64 -60 -64 65 -61 -67 -68 -66
right_child=-2 -3 -4 4 -6 36 7 28 33 34 -12 23 -14 18 -16 -17 -18 25 -20 -21 -22 22 -24 -25 -26 -27 -28 -29 29 30 32 -33 -34 -35 35 -37 -38 38 -40 56 43 -43 45 52 -46 -47 47 49 -50 50 -52 -53 -54 54 55 -57 -58 -59 59 61 -62 -63 63 -65 68 66 67 -69 -70
leaf_value=0.23198469867744709 0.12528335887282721 0.12528335887282721 0.12528335887282721 -0.094821986776665826 0.12528335887282721 0.14344392263115988 -0.13671639972042623 -0.11692758980512426 0.056264463190792702 0.15366135146730739 -0.1333740729579842 -0.13805864108182508 -0.1064746715371592 0.21473498139959771 -0.13664914722104424 -0.13513193591034212 0.27600649890530504 0.24769522826472593 -0.13709093498624986 0.27012252748632609 -0.13466147328593434 -0.1377876476512144 0.21441234673801693 -0.13485407638578309 0.25194467414247862 -0.013751058100407776 -0.11043021629888168 0.045757581086907619 -0.13767130796725471 0.029910631740663437 -0.13090219758398025 0.27142461032288812 0.075108435147885497 0.22934371364514688 -0.14458710561981911 0.15057207507541187 -0.13549507288630544 0.052199509373311352 -0.1390704840060584 -0.064411271716949992 -0.070953937144404969 0.38000737885825348 -0.13197257845498059 0.25192128335273223 -0.088107507104411689 0.11589002545230187 -0.083296289923279601 0.35570767831736605 -0.08216314071357389 -0.13081530435667529 0.15460747683243903 -0.033305840450110778 -0.059103938619300446 -0.13155418071285205 0.20295788130527159 -0.12691611300672209 -0.054121203827347211 -0.12312970097342298 -0.091108195522247817 0.35432094166526423 0.15090689829195073 0.26734954877310746 0.18614360217352247 -0.045998005918799725 -0.041384523794251789 -0.018497657977010445 0.018561850222333552 0.32424434260813079 0.20599372047519579
leaf_weight=6.1101945489644978 1807.8274617344141 962.95042023062706 682.82817520201206 131.70170545578003 225.03207378089428 9.271102607250219 8.1782486736774533 46.27504363656044 8.3109864890575409 8.997778922319414 24.668208390474319 6.3006324172019941 20.989188954234123 13.624898537993433 13.872047841548918 6.5344458669424048 5.5267948806285849 4.6785028278827649 4.3151566982269278 4.5949201583862296 6.6876948773860923 8.301531106233595 5.7136939764022818 24.763072654604912 4.2802011072635651 5.4875923693180084 51.781916543841362 7.7781459689140311 17.102216750383377 9.0536396801471728 11.005795404314993 4.6522498130798331 4.5373929291963568 8.9081729352474213 4.7276914119720441 4.410532146692276 4.5950966328382483 4.5635527968406659 6.4717654585838318 144.04516352713108 1285.4453946948051 4.0711909532546988 6.037336438894271 8.1408192813396436 139.45043674111366 29.128309994935989 18.918435111641884 4.8126999139785793 62.635873854160309 4.4993295818567303 15.601297810673712 9.8767337203025818 32.163667023181915 10.808326780796053 10.716078683733938 4.8457666337490073 5901.6557628065348 52.080706670880318 40.74176250398159 4.8558303266763678 9.3545316904783231 7.6281571686267844 15.030172631144522 35.402656152844429 31.621343210339546 19.161509037017822 5.0320222526788703 8.8778633922338468 4.7797904908657065
leaf_count=25 11223 5978 4239 887 1397 44 42 256 37 38 132 32 110 56 71 34 24 20 22 20 35 42 23 130 18 27 351 34 89 44 64 20 20 37 23 20 25 19 33 773 6957 21 33 35 760 143 105 24 345 25 79 52 175 60 47 29 31804 282 221 24 45 38 71 190 165 98 25 42 22
internal_value=0 -0.0218494 -0.036996 -0.0497749 0.0412698 -0.0794541 -0.0539664 -0.0338167 -0.0139757 -0.0281263 -0.0387519 -0.0233578 -0.00353261 0.0191412 -0.029087 0.0199865 0.0624483 -0.00189258 0.0609992 0.0793027 0.058479 0.0949479 0.00579642 -0.0885834 0.0197071 0.106568 -0.0547342 0.153326 -0.0791531 -0.0414408 0.0148261 0.111889 -0.0707632 0.145805 0.0751627 -0.00212954 0.00182535 0.0328993 -0.0599726 -0.0543707 -0.0611993 -0.0340667 -0.0397413 -0.0672422 -0.0549241 0.0733363 -0.0171351 0.0447067 -0.0516115 0.141908 0.0907184 0.068088 0.00431757 0.0634254 0.00523418 0.100239 -0.0525731 -0.0284416 -0.0133391 0.0202785 -0.0512809 0.0738616 -0.027887 0.0231857 0.0540043 0.114379 0.0791487 0.213661 -0.00890157
internal_weight=0 10317 9354.05 8671.22 381.635 156.603 8289.59 304.276 211.65 194.431 176.295 151.627 116.283 95.2937 44.2776 30.4056 23.8711 18.3443 51.016 46.7009 42.106 35.4183 14.0152 35.3439 10.5808 10.1661 7985.31 21.403 92.6263 46.3513 29.2491 13.7059 15.5432 17.2192 18.136 9.13822 24.9015 20.3064 11.0353 7933.53 1653.26 301.142 297.071 1352.12 261.905 35.1656 122.455 43.8318 78.6228 24.9133 20.1006 15.9869 66.6747 34.511 26.3702 15.5618 6280.27 378.612 326.531 173.131 153.4 81.9565 91.1746 50.4328 74.3284 37.9272 33.0714 13.9099 36.4011
internal_count=68431 57208 51230 46991 2405 1008 44586 1520 1027 953 872 740 560 450 218 147 113 89 232 210 190 155 65 180 50 47 43066 90 493 237 148 64 84 74 81 43 121 96 52 42715 8915 1612 1591 7303 1415 176 655 233 422 128 104 77 346 171 136 76 33800 1996 1714 896 818 414 482 261 376 189 165 67 187
is_linear=0
shrinkage=0.1


Tree=11
num_leaves=70
num_cat=0
split_feature=9 6 8 17 6 7 5 5 8 6 9 13 6 5 5 9 5 7 5 7 8 7 7 8 8 8 8 5 5 7 5 6 7 5 8 8 12 9 7 7 12 5 7 7 6 6 5 5 11 5 5 5 8 11 6 7 13 5 7 15 9 7 7 8 6 9 6 6 6
split_gain=2918.05 1995.15 1671.01 276.749 340.226 17.1042 10.9527 40.9156 50.2598 83.9582 61.0636 31.2249 17.0253 50.5073 29.1738 47.7872 39.6384 26.3155 42.7171 43.5418 33.8451 14.4193 37.7893 14.3393 16.823 52.3772 55.9853 49.2403 40.8972 39.7891 35.3256 32.6709 108.171 101.273 29.9336 32.02 31.7507 29.3619 32.8335 33.7441 31.7735 38.475 32.1544 28.8237 28.7637 51.0732 29.3506 36.7714 28.4205 31.5821 26.1801 43.8548 49.9129 44.4498 37.8361 33.8997 28.4598 25.9303 49.7759 23.2072 33.2823 22.0653 21.2143 21.679 27.3615 20.171 44.411 35.4865 76.3395
threshold=2.6329888631496936 6.5000000000000009 0.39398542350681315 1.0000000180025095e-35 3.5000000000000004 32.920995819028612 500.48942966628891 494.9634222870514 0.24032610195366347 2.5000000000000004 1.0000000180025095e-35 1.0000000180025095e-35 1.5000000000000002 534.77822649783127 551.86339132981823 1.6867032566913374 584.10071696737009 24.012809795838098 523.77437686754104 26.721627072854123 0.30782279971519694 8.4658974892824048 7.0429056581171663 0.36193487717736156 0.30782279971519694 0.27946172685312504 0.28268612998289377 400.30583371164647 246.50276360622036 9.7018850359959643 469.11670702297266 1.5000000000000002 12.94075742636633 216.10639846678495 0.3310499525134869 0.34531775214186128 1.0000000180025095e-35 1.6867032566913374 17.444451104265607 17.552594064727753 1.0000000180025095e-35 331.92499901095954 25.59653721363453 35.421407459943701 4.5000000000000009 3.5000000000000004 320.54466608081981 272.18118267592632 1.0000000180025095e-35 170.97614979026247 102.85775058080728 268.98034538107339 0.301401356399632 1.0000000180025095e-35 5.5000000000000009 32.920995819028612 1.0000000180025095e-35 228.42517973685599 24.63101508767144 1.0000000180025095e-35 1.0000000180025095e-35 33.947982129799385 3.9891247878725475 0.28660690777054226 3.5000000000000004 1.6867032566913374 5.5000000000000009 3.5000000000000004 2.5000000000000004
decision_type=2 2 2 2 2 2 2 2 2 2 2 2 2 2 2 2 2 2 2 2 2 2 2 2 2 2 2 2 2 2 2 2 2 2 2 2 2 2 2 2 2 2 2 2 2 2 2 2 2 2 2 2 2 2 2 2 2 2 2 2 2 2 2 2 2 2 2 2 2
left_child=1 2 3 6 5 -5 7 23 9 -9 -11 21 13 -13 17 16 -16 -14 19 -19 -21 22 -8 24 25 -1 28 37 29 -27 44 32 33 -26 -34 36 57 38 62 -40 50 42 -42 65 45 46 47 -30 49 -31 -41 55 53 -53 -55 -52 -57 58 -36 60 -44 -59 -28 64 -64 66 -29 68 -67
right_child=-2 -3 -4 4 -6 -7 11 8 -10 10 -12 12 14 -15 15 -17 -18 18 -20 20 -22 -23 -24 -25 31 26 27 43 30 48 -32 -33 34 -35 35 -37 -38 -39 39 40 41 -43 59 -45 -46 -47 -48 -49 -50 -51 51 52 -54 54 -56 56 -58 61 -60 -61 -62 -63 63 -65 -66 67 -68 -69 -70
leaf_value=-0.052418831997982529 0.12230616931163954 0.12230616931163954 0.12230616931163954 -0.09107698260243742 0.12230616931163954 0.0016794522037572935 -0.12733038682528136 -0.13107041564827884 -0.12645656634009758 -0.1266214972652209 0.29852367578994471 0.314898828774964 -0.11605475634973272 -0.044818872415981911 0.23359146695875124 -0.099613435638220657 -0.038039754126691555 0.41541157146485247 -0.12811418348708623 -0.1301774314985516 0.21182400846259275 -0.10256532848385842 0.24123021510687753 -0.034474372069033386 -0.1284716508514416 0.28158036101894834 0.14555901237777233 0.01952147980307457 0.20627377214222853 0.18478105976015002 -0.12844484317799257 -0.06814125752429237 -0.12905919375821059 0.30695671846270856 0.38734693370695017 -0.08983088431683757 0.21239192931094159 -0.076015555388420197 0.27807552028586391 0.098378752761976024 0.24529404103081057 -0.13256340357658974 -0.12748469628000375 0.21550196639675559 0.28359263993664102 -0.064327379619135275 0.29392700169453612 -0.1282868090087608 -0.11029760515705507 -0.12651478270109581 -0.11620233780151662 -0.13034704722430421 -0.084277244424613443 0.17006877512808369 -0.12784273878298813 -0.12715652318350457 0.20763106599759684 -0.13087022807508406 -0.024579189825100847 -0.12850492331434568 0.22624251295940448 0.12193002871453695 -0.12733865822298027 -0.094978542663815418 0.16451982069625173 -0.042344406112489928 0.30256268329234637 -0.13159949486815783 0.43473541183633335
leaf_weight=5209.7006047666073 1673.5441927760839 891.42361083626747 632.10851226747036 123.81722447276115 208.31695957481861 23.682282507419586 7.3878202736377698 9.8559871762990934 12.190695494413374 4.1509108543396023 18.152385100722313 5.3549966961145428 60.624651283025742 14.398287475109099 13.058722898364069 17.374621123075485 9.1270629614591581 3.6555251032114038 13.828946277499199 6.5804686993360502 5.1646321564912796 173.1823436319828 4.4622826427221298 560.06565299630165 7.7425105869770077 3.8932569026947013 4.3741202205419532 33.621201634407043 8.5932602584362048 8.4742563813924772 5.8465537726879111 1041.2389347851276 38.85020112991333 17.224469482898712 4.2070855796337119 37.256374791264534 8.3137318491935712 204.75543794035912 4.1452545225620261 14.861366748809813 12.516059875488283 7.3610897660255423 3.8893652707338342 8.0025407224893552 9.9285485148429853 13.499277219176291 11.570705085992811 5.3184177428483954 28.107757046818733 5.2957502454519263 70.860500499606133 8.0364337563514692 30.177924916148186 31.360634028911591 4.9338649660348883 4.1978166848421079 6.4263288229703903 16.133615702390674 9.6899566501378995 5.7790265381336203 8.4151448309421539 4.3927245438098899 5.5501674711704236 98.887506484985352 7.6252160519361496 15.902892559766771 6.6381073445081702 19.239959418773651 4.2504904121160498
leaf_count=28892 11223 5978 4239 887 1397 121 44 55 74 25 95 25 351 85 64 93 48 20 82 37 29 988 23 2943 45 17 20 187 41 37 34 5859 224 86 22 211 42 1156 18 68 60 40 23 38 45 75 52 31 163 32 409 45 171 159 29 25 33 90 53 35 43 20 33 556 37 89 30 106 24
internal_value=0 -0.0204294 -0.0344987 -0.0462823 0.0400244 -0.0761842 -0.0500944 -0.0493273 0.0464465 0.111989 0.219399 -0.0678182 -0.0337748 0.0526984 -0.0469737 0.0245819 0.121844 -0.0784777 -0.000539596 0.114016 0.0202097 -0.0952631 0.011455 -0.0498806 -0.051093 -0.0489199 -0.0236848 -0.0348787 0.0455545 -0.0242088 0.103869 -0.0619706 -0.0172927 0.171926 -0.0570443 -0.022069 0.0370028 -0.0462782 -0.0277934 -0.00444836 -0.0100568 0.0726989 0.122077 0.034588 0.131639 0.0929373 0.176248 0.0783717 -0.0526372 0.0650611 -0.0284436 -0.0405258 0.0149226 0.0824521 0.129571 -0.0912274 0.0753497 -0.00535608 0.100124 0.0367957 0.114432 -0.0767699 -0.0704909 -0.0789239 0.0415736 0.0164119 0.0661904 -0.0344609 0.0582751
internal_weight=0 9935.05 9043.63 8411.52 355.816 147.5 8055.7 7721.5 44.35 32.1593 22.3033 334.2 149.168 19.7533 129.415 39.5604 22.1858 89.8542 29.2296 15.4006 11.7451 185.032 11.8501 7677.15 7117.09 5932.04 722.336 621.808 100.528 45.771 54.7568 1185.05 143.811 24.967 118.844 79.9935 42.7371 534.153 329.398 212.961 208.816 37.9607 30.5996 87.6552 48.9102 38.9817 25.4824 13.9117 41.8778 13.77 170.855 155.994 74.5089 44.3309 36.2945 81.4846 10.6241 34.4234 13.897 18.0835 12.3045 20.5263 116.437 112.063 13.1754 79.6527 40.2593 39.3933 20.1534
internal_count=68431 57208 51230 46991 2405 1008 44586 42697 249 175 120 1889 834 110 724 205 112 519 168 86 66 1055 67 42448 39505 32853 3961 3434 527 249 278 6652 793 131 662 438 227 2960 1804 1158 1140 201 161 474 244 199 124 72 232 69 939 871 404 233 188 467 58 185 75 101 66 110 646 626 70 436 217 219 113
is_linear=0
shrinkage=0.1


Tree=12
num_leaves=70
num_cat=0
split_feature=9 6 8 17 6 7 5 7 8 7 5 8 7 5 7 7 7 5 6 7 8 8 11 7 6 5 12 9 5 9 7 7 8 8 13 6 14 8 8 7 7 7 5 7 5 8 7 7 8 8 6 7 12 6 5 9 7 6 8 7 15 8 7 7 8 8 5 8 5
split_gain=2564.64 1735.62 1442.61 231.615 299.323 16.8865 21.2844 45.2574 19.0208 13.2242 11.3063 28.5396 27.8923 25.5932 22.0915 21.5142 22.2683 77.8609 19.238 55.2225 28.0253 34.0156 48.2211 24.5417 22.8695 30.6893 21.7587 19.2326 18.4844 25.5759 79.0017 54.0155 40.7762 92.3262 34.3384 46.0085 30.3475 28.9677 28.4308 28.4754 43.2181 23.5071 22.0295 65.7993 69.6308 31.9763 21.8311 28.6565 35.0381 27.4111 22.3563 31.3912 58.5247 21.5527 18.0594 17.7279 51.6594 29.7334 16.7585 38.9464 44.8945 81.3572 28.7913 26.2592 23.2104 65.8218 25.2285 20.9807 16.3056
threshold=2.6329888631496936 6.5000000000000009 0.39398542350681315 1.0000000180025095e-35 3.5000000000000004 25.59653721363453 340.75810315454322 27.988602567480363 0.13406219340257344 34.350835202883189 165.69961162301129 0.39082490737498138 27.047869375045369 163.71833716747096 14.6937572566067 25.59653721363453 25.380413077545693 116.37358440657661 3.5000000000000004 27.511174703961121 0.083779031622711872 0.12400005887739747 1.0000000180025095e-35 28.316989736549647 5.5000000000000009 30.779592196946421 1.0000000180025095e-35 1.0000000180025095e-35 214.15732057616628 1.6867032566913374 34.140981513501437 36.053892547301821 0.33893035122876464 0.35421689268595496 1.0000000180025095e-35 2.5000000000000004 1.0000000180025095e-35 0.30003716355161308 0.22209381824760757 9.507234025041102 8.4658974892824048 37.692480110452827 199.17651003963164 26.038341754449291 208.95428556005083 0.28660690777054226 26.721627072854123 29.000735630760989 0.25520937243164271 0.22314743744876156 5.5000000000000009 21.224286968983112 1.0000000180025095e-35 5.5000000000000009 145.1555208806308 1.6867032566913374 35.421407459943701 4.5000000000000009 0.17890164746766987 17.957063264357931 1.0000000180025095e-35 0.13052358428183922 23.264599471210136 14.137897483732557 0.22209381824760757 0.19695481659834388 186.74821335918872 0.062091203614751157 170.97614979026247
decision_type=2 2 2 2 2 2 2 2 2 2 2 2 2 2 2 2 2 2 2 2 2 2 2 2 2 2 2 2 2 2 2 2 2 2 2 2 2 2 2 2 2 2 2 2 2 2 2 2 2 2 2 2 2 2 2 2 2 2 2 2 2 2 2 2 2 2 2 2 2
left_child=1 2 3 10 5 -5 7 -7 -8 -9 11 12 13 15 -15 16 -1 -18 23 -20 -21 22 -22 -14 55 -26 -25 -27 29 37 32 -32 58 -34 -35 -36 -33 38 39 40 -12 -30 46 44 45 -44 49 -48 -49 -40 -51 52 -52 -46 -24 -23 57 -57 59 -31 62 -62 -61 64 65 -60 -66 -64 -39
right_child=-2 -3 -4 4 -6 6 8 9 -10 -11 28 -13 18 14 -16 -17 17 -19 19 20 21 24 54 26 25 27 -28 -29 41 30 31 36 33 34 35 -37 -38 68 42 -41 -42 -43 43 -45 53 -47 47 48 -50 50 51 -53 -54 -55 -56 56 -58 -59 63 60 61 -63 67 -65 66 -67 -68 -69 -70
leaf_value=-0.049930341429281572 0.11973823196008462 0.11973823196008462 0.11973823196008462 -0.10226549658673463 0.11973823196008462 0.36134285049745596 0.11520041827365089 -0.069821709595767931 -0.12694763618928959 0.074247285570058552 -0.088775409665350316 0.13878553053129161 -0.12833469855342575 -0.13133790598468084 0.065038702755018649 -0.10509056648360234 -0.12542888747391587 0.33349216755586047 0.19430493469685772 -0.13001674279130279 0.23494987705995679 -0.030750910976330134 -0.13154054908106991 -0.0060994101289625425 0.1605261971578667 0.11439944067097603 -0.10647151501836943 -0.12919212811164529 -0.045432691203183523 -0.11336547876852382 0.29147984858568482 -0.1290568355794153 0.32830113527673088 -0.12673320455827675 -0.13356372756974241 0.33364181482313848 0.14224949321085009 0.086736036254801849 0.16980144340835981 -0.096664984069239471 0.20247664526461151 -0.10194735566694102 0.37525394214078922 -0.12695124428855847 -0.1269731325960948 0.040317078599918184 0.17401055780329783 0.12349075984202457 -0.12570962266555888 -0.12661782741314798 0.46397655144145084 -0.12824791067269198 -0.12508562606471327 0.17046176868670179 0.12473615880453169 0.1511440879285238 -0.12747863125607203 -0.04396009834875661 -0.12680036456658081 0.14819248480072145 -0.1272895238838164 0.4211771527519832 0.14037031724943999 -0.11170806095228646 0.045533996894537798 0.4680907507446615 -0.12661256404270502 -0.10250892672563934 -0.12595691111821661
leaf_weight=783.21274898946285 1545.0813962370157 822.99711188673973 583.58727957308292 80.583662778139114 192.32635752856731 3.5435812622308758 3.7383857369422939 17.779969394207004 24.523996248841286 9.9294717013835889 13.10415902733803 9.0726164579391462 27.429943144321442 6.9629803150892249 32.312862247228622 70.908719316124916 8.5586132407188398 6.508215367794036 14.148291200399397 17.766431927680969 13.846699789166451 57.674496442079544 7.6410990953445435 114.82188078761101 4.8250265866518012 3.5685270279645911 26.601322680711746 35.342858821153641 5654.3627975955606 35.708103910088539 11.150163769721987 8.249903216958046 8.683155342936514 17.795401871204376 3.9178875088691729 4.5621124804019928 8.2417196780443192 3.7201656103134146 4.0395147800445548 204.85367102921009 8.3356448262929899 74.57055040448904 10.124650448560716 16.149254694581032 8.8619950413703901 3.9672763943672171 8.3804150670766813 8.6155904084444064 16.347993046045303 55.704788744449615 3.3813086450099927 7.3842818588018417 3.3652102947235107 3.3598878979682913 4.2954235225915909 31.364805176854134 12.740614116191862 10.401442006230353 4.1661841720342627 7.4844634532928458 4.5398514121770841 6.6900612860918045 4.0992436408996609 122.82574866712093 14.607797354459761 3.3598878979682922 20.404945075511932 26.869295328855515 115.81864678859711
leaf_count=4478 11223 5978 4239 614 1397 27 20 128 166 53 79 37 160 39 147 428 53 31 63 101 57 298 42 602 22 19 141 206 32097 212 50 50 48 107 21 22 37 22 24 1202 45 505 59 97 53 22 46 40 101 336 20 43 21 20 19 139 76 54 25 41 27 37 24 745 81 20 123 156 716
internal_value=0 -0.0191024 -0.0321556 -0.0430052 0.0387502 -0.0724293 -0.0320311 0.0248378 -0.0949177 -0.0181957 -0.0464726 -0.0379553 -0.0391974 -0.0487349 0.0302243 -0.0523028 -0.0476138 0.0728051 -0.0165433 0.00339642 -0.0101448 0.0015761 0.107976 -0.0417691 -0.0160186 -0.0773552 -0.0249791 -0.106853 -0.0481663 -0.0623172 -0.0399565 0.121473 -0.0555742 0.0456039 -0.0478183 0.117786 0.00652901 -0.0764577 -0.0628243 -0.0851891 0.0244613 -0.0461683 -0.0290128 0.0319476 0.129467 0.28096 -0.0531555 0.0140093 -0.039704 -0.0834708 -0.0981209 0.0142164 0.170148 -0.045206 -0.039318 0.00789487 0.0487865 0.102555 -0.0696797 -0.0337041 0.0235501 0.199452 -0.0278207 -0.0882567 -0.0205439 0.138779 -0.0547907 -0.0703595 -0.119338
internal_weight=0 9576.82 8753.82 8170.23 332.425 140.099 59.5154 31.253 28.2624 27.7094 7837.81 1300.01 1290.93 908.464 39.2758 869.188 798.28 15.0668 382.469 213.616 199.467 181.701 25.7832 168.853 155.918 43.7364 141.423 38.9114 6537.8 808.87 313.356 27.6418 285.714 34.9586 26.2754 8.48 16.4916 495.514 375.976 226.293 21.4398 5728.93 149.682 42.4631 26.3138 14.0919 107.219 33.344 24.9636 73.8751 69.8356 14.1308 6.74652 12.2219 11.9365 112.181 54.5069 41.7662 250.756 85.391 49.6829 11.2299 38.453 165.365 42.5388 7.52607 35.0127 30.9685 119.539
internal_count=68431 57208 51230 46991 2405 1008 394 208 186 181 44586 7212 7175 5176 186 4990 4562 84 1999 1096 1033 932 118 903 814 247 743 225 37374 4772 1826 137 1689 198 150 43 87 2946 2208 1326 124 32602 882 251 154 81 631 187 141 444 420 84 41 73 61 567 269 193 1491 497 285 64 221 994 249 45 204 180 738
is_linear=0
shrinkage=0.1


Tree=13
num_leaves=70
num_cat=0
split_feature=9 6 8 17 6 7 5 7 8 8 9 7 5 5 8 6 13 6 5 8 7 9 9 5 6 5 8 11 8 6 5 7 5 5 7 5 8 5 8 7 6 7 8 8 5 8 5 5 5 8 8 15 5 13 8 8 8 5 5 7 5 6 7 5 8 8 9 8 9
split_gain=2259.47 1513.09 1247.95 193.399 264.632 15.5906 19.0302 30.8386 12.7102 15.6732 14.6031 14.4324 10.452 34.2212 41.3684 63.7575 28.5525 21.5856 17.8194 15.8541 29.1258 32.3911 27.6223 27.8749 28.2985 42.6472 22.7143 18.0893 13.3477 15.4533 22.0721 21.1307 27.211 30.5353 21.4429 36.5595 28.9829 29.9857 27.7393 17.2063 33.0962 29.7967 37.3885 15.2404 53.1728 15.5969 19.3059 37.9572 19.8871 18.6833 44.164 18.3163 49.4929 15.8889 15.2286 45.288 46.3426 41.7906 32.9201 29.0138 28.5674 27.9941 86.4237 72.7633 27.5347 27.5011 38.2515 33.0316 26.6816
